{"learner":{"attributes":{"scikit_learn":"{\"_estimator_type\": \"classifier\"}"},"feature_names":[],"feature_types":[],"gradient_booster":{"model":{"cats":{"enc":[],"feature_segments":[],"sorted_idx":[]},"gbtree_model_param":{"num_parallel_tree":"1","num_trees":"400"},"iteration_indptr":[0,4,8,12,16,20,24,28,32,36,40,44,48,52,56,60,64,68,72,76,80,84,88,92,96,100,104,108,112,116,120,124,128,132,136,140,144,148,152,156,160,164,168,172,176,180,184,188,192,196,200,204,208,212,216,220,224,228,232,236,240,244,248,252,256,260,264,268,272,276,280,284,288,292,296,300,304,308,312,316,320,324,328,332,336,340,344,348,352,356,360,364,368,372,376,380,384,388,392,396,400],"tree_info":[0,1,2,3,0,1,2,3,0,1,2,3,0,1,2,3,0,1,2,3,0,1,2,3,0,1,2,3,0,1,2,3,0,1,2,3,0,1,2,3,0,1,2,3,0,1,2,3,0,1,2,3,0,1,2,3,0,1,2,3,0,1,2,3,0,1,2,3,0,1,2,3,0,1,2,3,0,1,2,3,0,1,2,3,0,1,2,3,0,1,2,3,0,1,2,3,0,1,2,3,0,1,2,3,0,1,2,3,0,1,2,3,0,1,2,3,0,1,2,3,0,1,2,3,0,1,2,3,0,1,2,3,0,1,2,3,0,1,2,3,0,1,2,3,0,1,2,3,0,1,2,3,0,1,2,3,0,1,2,3,0,1,2,3,0,1,2,3,0,1,2,3,0,1,2,3,0,1,2,3,0,1,2,3,0,1,2,3,0,1,2,3,0,1,2,3,0,1,2,3,0,1,2,3,0,1,2,3,0,1,2,3,0,1,2,3,0,1,2,3,0,1,2,3,0,1,2,3,0,1,2,3,0,1,2,3,0,1,2,3,0,1,2,3,0,1,2,3,0,1,2,3,0,1,2,3,0,1,2,3,0,1,2,3,0,1,2,3,0,1,2,3,0,1,2,3,0,1,2,3,0,1,2,3,0,1,2,3,0,1,2,3,0,1,2,3,0,1,2,3,0,1,2,3,0,1,2,3,0,1,2,3,0,1,2,3,0,1,2,3,0,1,2,3,0,1,2,3,0,1,2,3,0,1,2,3,0,1,2,3,0,1,2,3,0,1,2,3,0,1,2,3,0,1,2,3,0,1,2,3,0,1,2,3,0,1,2,3,0,1,2,3,0,1,2,3,0,1,2,3,0,1,2,3,0,1,2,3,0,1,2,3,0,1,2,3,0,1,2,3],"trees":[{"base_weights":[2.5017578E-6,3.8953832E-1,-9.7381735E-1,7.3865443E-1,-5.532597E-1,-1.9933675E-1,-5.7733424E-2,4.2107463E-2,3.115125E-2,3.8159277E-2,-5.774873E-2,3.0359609E-2,-5.68127E-2],"categories":[],"categories_nodes":[],"categories_segments":[],"categories_sizes":[],"default_left":[0,0,0,0,0,0,0,0,0,0,0,0,0],"id":0,"left_children":[1,3,5,7,9,11,-1,-1,-1,-1,-1,-1,-1],"loss_changes":[7.4509094E2,4.621952E2,7.8375305E1,1.1732971E1,3.0165317E2,8.188366E1,0E0,0E0,0E0,0E0,0E0,0E0,0E0],"parents":[2147483647,0,0,1,1,2,2,3,3,4,4,5,5],"right_children":[2,4,6,8,10,12,-1,-1,-1,-1,-1,-1,-1],"split_conditions":[5.378283E-1,3.8257515E-1,-2.9564974E-1,-2.9564974E-1,-3.14122E-1,3.4734523E-1,-5.7733424E-2,4.2107463E-2,3.115125E-2,3.8159277E-2,-5.774873E-2,3.0359609E-2,-5.68127E-2],"split_indices":[5,6,8,8,8,6,0,0,0,0,0,0,0],"split_type":[0,0,0,0,0,0,0,0,0,0,0,0,0],"sum_hessian":[1.9621888E3,1.4019839E3,5.602049E2,1.0232815E3,3.7870245E2,1.06448746E2,4.5375616E2,5.366586E2,4.8662283E2,1.18712425E2,2.5999002E2,5.7394024E1,4.905472E1],"tree_param":{"num_deleted":"0","num_feature":"12","num_nodes":"13","size_leaf_vector":"1"}},{"base_weights":[-2.6325097E-6,8.953702E-1,-5.1651585E-1,3.3881575E-1,2.3214412E0,-2.1079406E-1,-2.8153345E-2,-2.606697E-3,9.6234865E-2,1.8809237E-1,5.236277E-3,-2.259736E-2,-4.546534E-3],"categories":[],"categories_nodes":[],"categories_segments":[],"categories_sizes":[],"default_left":[0,0,0,0,0,0,0,0,0,0,0,0,0],"id":1,"left_children":[1,3,5,7,9,11,-1,-1,-1,-1,-1,-1,-1],"loss_changes":[3.7461853E2,2.344119E2,7.192093E0,1.329795E2,2.646724E2,1.9672818E0,0E0,0E0,0E0,0E0,0E0,0E0,0E0],"parents":[2147483647,0,0,1,1,2,2,3,3,4,4,5,5],"right_children":[2,4,6,8,10,12,-1,-1,-1,-1,-1,-1,-1],"split_conditions":[-5.774066E-1,3.649602E-1,-4.5421997E-1,4.6367872E-1,-3.110503E-1,-6.0044104E-1,-2.8153345E-2,-2.606697E-3,9.6234865E-2,1.8809237E-1,5.236277E-3,-2.259736E-2,-4.546534E-3],"split_indices":[7,6,7,5,9,8,0,0,0,0,0,0,0],"split_type":[0,0,0,0,0,0,0,0,0,0,0,0,0],"sum_hessian":[8.080353E2,2.9533688E2,5.1269836E2,2.133213E2,8.201558E1,6.848099E1,4.4421738E2,1.719095E2,4.1411808E1,4.929015E1,3.272543E1,2.1816952E1,4.6664036E1],"tree_param":{"num_deleted":"0","num_feature":"12","num_nodes":"13","size_leaf_vector":"1"}},{"base_weights":[-8.2747755E-7,-5.2981454E-1,3.3053917E-1,-6.007399E-1,-7.217465E-2,-1.6502169E-1,7.808092E-1,-3.0643374E-2,-2.5738448E-2,-2.4248684E-2,2.1655854E-2,-3.0377287E-2,3.0534571E-2,7.8738615E-2,-3.051698E-2],"categories":[],"categories_nodes":[],"categories_segments":[],"categories_sizes":[],"default_left":[0,0,0,0,0,0,0,0,0,0,0,0,0,0,0],"id":2,"left_children":[1,3,5,7,9,11,13,-1,-1,-1,-1,-1,-1,-1,-1],"loss_changes":[2.1290657E2,1.5117172E1,1.671833E2,1.0600281E-1,1.3520043E1,1.2299921E2,4.3441064E2,0E0,0E0,0E0,0E0,0E0,0E0,0E0,0E0],"parents":[2147483647,0,0,1,1,2,2,3,3,4,4,5,5,6,6],"right_children":[2,4,6,8,10,12,14,-1,-1,-1,-1,-1,-1,-1,-1],"split_conditions":[-3.14122E-1,5.54572E-1,-5.774066E-1,4.2699505E-2,4.3542004E-1,-2.852012E-1,1.2857913E0,-3.0643374E-2,-2.5738448E-2,-2.4248684E-2,2.1655854E-2,-3.0377287E-2,3.0534571E-2,7.8738615E-2,-3.051698E-2],"split_indices":[8,5,7,5,6,9,7,0,0,0,0,0,0,0,0],"split_type":[0,0,0,0,0,0,0,0,0,0,0,0,0,0,0],"sum_hessian":[1.2137432E3,4.660774E2,7.4766583E2,4.0326617E2,6.281121E1,3.5623364E2,3.914322E2,3.4804086E2,5.5225315E1,3.4591682E1,2.821953E1,2.2696999E2,1.2926366E2,2.4912079E2,1.4231139E2],"tree_param":{"num_deleted":"0","num_feature":"12","num_nodes":"15","size_leaf_vector":"1"}},{"base_weights":[-2.0406137E-6,-5.6294703E-1,3.3727627E0,-5.705915E-1,2.908645E-1,2.3050385E0,3.6847193E0,-2.8722811E-2,-1.2511887E-2,3.8826462E-2,-2.1045139E-2,-1.8066077E-2,1.4887103E-1,7.9444304E-2,1.861241E-1],"categories":[],"categories_nodes":[],"categories_segments":[],"categories_sizes":[],"default_left":[0,0,0,0,0,0,0,0,0,0,0,0,0,0,0],"id":3,"left_children":[1,3,5,7,9,11,13,-1,-1,-1,-1,-1,-1,-1,-1],"loss_changes":[1.7301508E3,5.262863E0,3.492041E1,8.149109E-1,2.9512403E0,5.8699356E1,1.9364014E0,0E0,0E0,0E0,0E0,0E0,0E0,0E0,0E0],"parents":[2147483647,0,0,1,1,2,2,3,3,4,4,5,5,6,6],"right_children":[2,4,6,8,10,12,14,-1,-1,-1,-1,-1,-1,-1,-1],"split_conditions":[1.2857913E0,1.1626046E0,3.4734523E-1,8.5463816E-1,9.1774456E-2,5.378283E-1,-5.5369467E-2,-2.8722811E-2,-1.2511887E-2,3.8826462E-2,-2.1045139E-2,-1.8066077E-2,1.4887103E-1,7.9444304E-2,1.861241E-1],"split_indices":[7,7,6,7,2,5,5,0,0,0,0,0,0,0,0],"split_type":[0,0,0,0,0,0,0,0,0,0,0,0,0,0,0],"sum_hessian":[9.092382E2,7.798991E2,1.2933914E2,7.733071E2,6.591977E0,3.1141409E1,9.819773E1,7.633055E2,1.000162E1,3.8642623E0,2.7277145E0,6.3646674E0,2.4776741E1,2.500405E0,9.569732E1],"tree_param":{"num_deleted":"0","num_feature":"12","num_nodes":"15","size_leaf_vector":"1"}},{"base_weights":[7.029808E-4,3.775322E-1,-9.2903E-1,7.182586E-1,-5.3170353E-1,-1.8579017E-1,-5.506427E-2,4.0819865E-2,3.0459065E-2,3.709444E-2,-5.5171486E-2,2.9660994E-2,-5.383688E-2],"categories":[],"categories_nodes":[],"categories_segments":[],"categories_sizes":[],"default_left":[0,0,0,0,0,0,0,0,0,0,0,0,0],"id":4,"left_children":[1,3,5,7,9,11,-1,-1,-1,-1,-1,-1,-1],"loss_changes":[6.87471E2,4.329571E2,7.2250305E1,1.0379883E1,2.7838184E2,7.537935E1,0E0,0E0,0E0,0E0,0E0,0E0,0E0],"parents":[2147483647,0,0,1,1,2,2,3,3,4,4,5,5],"right_children":[2,4,6,8,10,12,-1,-1,-1,-1,-1,-1,-1],"split_conditions":[5.378283E-1,3.8257515E-1,-2.9564974E-1,-2.9564974E-1,-3.14122E-1,3.4734523E-1,-5.506427E-2,4.0819865E-2,3.0459065E-2,3.709444E-2,-5.5171486E-2,2.9660994E-2,-5.383688E-2],"split_indices":[5,6,8,8,8,6,0,0,0,0,0,0,0],"split_type":[0,0,0,0,0,0,0,0,0,0,0,0,0],"sum_hessian":[1.9602365E3,1.3953019E3,5.6493463E2,1.01511017E3,3.8019168E2,1.0668656E2,4.5824805E2,5.3093506E2,4.841751E2,1.1770075E2,2.6249094E2,5.7097168E1,4.9589394E1],"tree_param":{"num_deleted":"0","num_feature":"12","num_nodes":"13","size_leaf_vector":"1"}},{"base_weights":[-3.6002373E-4,8.364361E-1,-5.135675E-1,3.3048415E-1,2.005092E0,-2.0337982E-1,-2.8056083E-2,-2.2035516E-3,8.4874325E-2,1.5405343E-1,4.472532E-3,-2.2320714E-2,-4.2347815E-3],"categories":[],"categories_nodes":[],"categories_segments":[],"categories_sizes":[],"default_left":[0,0,0,0,0,0,0,0,0,0,0,0,0],"id":5,"left_children":[1,3,5,7,9,11,-1,-1,-1,-1,-1,-1,-1],"loss_changes":[3.478648E2,1.814131E2,7.2920685E0,1.1071878E2,1.9108258E2,1.9325697E0,0E0,0E0,0E0,0E0,0E0,0E0,0E0],"parents":[2147483647,0,0,1,1,2,2,3,3,4,4,5,5],"right_children":[2,4,6,8,10,12,-1,-1,-1,-1,-1,-1,-1],"split_conditions":[-5.774066E-1,3.649602E-1,-4.5421997E-1,4.6367872E-1,-3.110503E-1,-6.0044104E-1,-2.8056083E-2,-2.2035516E-3,8.4874325E-2,1.5405343E-1,4.472532E-3,-2.2320714E-2,-4.2347815E-3],"split_indices":[7,6,7,5,9,8,0,0,0,0,0,0,0],"split_type":[0,0,0,0,0,0,0,0,0,0,0,0,0],"sum_hessian":[8.080237E2,3.0693295E2,5.0109073E2,2.1509402E2,9.183892E1,6.731074E1,4.3378E2,1.6959358E2,4.550045E1,5.8418224E1,3.34207E1,2.1179417E1,4.6131317E1],"tree_param":{"num_deleted":"0","num_feature":"12","num_nodes":"13","size_leaf_vector":"1"}},{"base_weights":[-1.7321587E-4,-5.221938E-1,3.1072906E-1,-5.944273E-1,-6.9534205E-2,-1.6210695E-1,7.2279435E-1,-3.03461E-2,-2.5306901E-2,-2.3799155E-2,2.0062333E-2,-3.018465E-2,2.8946577E-2,7.13292E-2,-3.0402318E-2],"categories":[],"categories_nodes":[],"categories_segments":[],"categories_sizes":[],"default_left":[0,0,0,0,0,0,0,0,0,0,0,0,0,0,0],"id":6,"left_children":[1,3,5,7,9,11,13,-1,-1,-1,-1,-1,-1,-1,-1],"loss_changes":[1.9722885E2,1.4790291E1,1.4851193E2,1.24191284E-1,1.2352252E1,1.1667324E2,3.822159E2,0E0,0E0,0E0,0E0,0E0,0E0,0E0,0E0],"parents":[2147483647,0,0,1,1,2,2,3,3,4,4,5,5,6,6],"right_children":[2,4,6,8,10,12,14,-1,-1,-1,-1,-1,-1,-1,-1],"split_conditions":[-3.14122E-1,5.54572E-1,-5.774066E-1,4.2699505E-2,4.3542004E-1,-2.852012E-1,1.2857913E0,-3.03461E-2,-2.5306901E-2,-2.3799155E-2,2.0062333E-2,-3.018465E-2,2.8946577E-2,7.13292E-2,-3.0402318E-2],"split_indices":[8,5,7,5,6,9,7,0,0,0,0,0,0,0,0],"split_type":[0,0,0,0,0,0,0,0,0,0,0,0,0,0,0],"sum_hessian":[1.2132314E3,4.5260507E2,7.6062634E2,3.9004944E2,6.255563E1,3.544776E2,4.0614874E2,3.3654712E2,5.3502335E1,3.3565655E1,2.8989973E1,2.222336E2,1.3224402E2,2.6561267E2,1.405361E2],"tree_param":{"num_deleted":"0","num_feature":"12","num_nodes":"15","size_leaf_vector":"1"}},{"base_weights":[-9.6325483E-4,-5.6003433E-1,2.815266E0,-5.6783557E-1,2.7146658E-1,2.0207877E0,1.5166058E-1,-2.8588131E-2,-1.260356E-2,3.7523422E-2,-2.127287E-2,-1.7759277E-2,1.2689702E-1],"categories":[],"categories_nodes":[],"categories_segments":[],"categories_sizes":[],"default_left":[0,0,0,0,0,0,0,0,0,0,0,0,0],"id":7,"left_children":[1,3,5,7,9,11,-1,-1,-1,-1,-1,-1,-1],"loss_changes":[1.435249E3,5.0878143E0,2.0014893E1,7.906494E-1,2.9051437E0,4.4521347E1,0E0,0E0,0E0,0E0,0E0,0E0,0E0],"parents":[2147483647,0,0,1,1,2,2,3,3,4,4,5,5],"right_children":[2,4,6,8,10,12,-1,-1,-1,-1,-1,-1,-1],"split_conditions":[1.2857913E0,1.1626046E0,3.4734523E-1,8.5463816E-1,4.1919065E-1,5.378283E-1,1.5166058E-1,-2.8588131E-2,-1.260356E-2,3.7523422E-2,-2.127287E-2,-1.7759277E-2,1.2689702E-1],"split_indices":[7,7,6,7,9,5,0,0,0,0,0,0,0],"split_type":[0,0,0,0,0,0,0,0,0,0,0,0,0],"sum_hessian":[9.095732E2,7.5958356E2,1.4998958E2,7.528375E2,6.746062E0,3.4499683E1,1.154899E2,7.4278894E2,1.0048596E1,3.9525855E0,2.793476E0,6.22288E0,2.8276802E1],"tree_param":{"num_deleted":"0","num_feature":"12","num_nodes":"13","size_leaf_vector":"1"}},{"base_weights":[1.2175482E-3,3.664561E-1,-8.898337E-1,6.992537E-1,-5.1241046E-1,-1.7405878E-1,-5.273211E-2,4.0229615E-2,3.0364621E-2,3.6111534E-2,-5.2894432E-2,2.8993994E-2,-5.1343054E-2],"categories":[],"categories_nodes":[],"categories_segments":[],"categories_sizes":[],"default_left":[0,0,0,0,0,0,0,0,0,0,0,0,0],"id":8,"left_children":[1,3,5,7,9,11,-1,-1,-1,-1,-1,-1,-1],"loss_changes":[6.365335E2,4.0610715E2,6.689523E1,9.262787E0,2.5776068E2,6.9791756E1,0E0,0E0,0E0,0E0,0E0,0E0,0E0],"parents":[2147483647,0,0,1,1,2,2,3,3,4,4,5,5],"right_children":[2,4,6,8,10,12,-1,-1,-1,-1,-1,-1,-1],"split_conditions":[5.378283E-1,3.8257515E-1,-2.9564974E-1,-5.6349665E-1,-3.14122E-1,3.4734523E-1,-5.273211E-2,4.0229615E-2,3.0364621E-2,3.6111534E-2,-5.2894432E-2,2.8993994E-2,-5.1343054E-2],"split_indices":[5,6,8,8,8,6,0,0,0,0,0,0,0],"split_type":[0,0,0,0,0,0,0,0,0,0,0,0,0],"sum_hessian":[1.9538772E3,1.386248E3,5.676291E2,1.00564716E3,3.8060086E2,1.0662135E2,4.6100775E2,4.651192E2,5.40528E2,1.1652741E2,2.6407346E2,5.6760773E1,4.9860577E1],"tree_param":{"num_deleted":"0","num_feature":"12","num_nodes":"13","size_leaf_vector":"1"}},{"base_weights":[-4.877612E-4,7.847235E-1,-5.105935E-1,3.2260278E-1,1.7648902E0,-1.9597259E-1,-2.7960366E-2,-1.8004744E-3,7.573669E-2,1.3063006E-1,3.790158E-3,-2.20421E-2,-3.926614E-3],"categories":[],"categories_nodes":[],"categories_segments":[],"categories_sizes":[],"default_left":[0,0,0,0,0,0,0,0,0,0,0,0,0],"id":9,"left_children":[1,3,5,7,9,11,-1,-1,-1,-1,-1,-1,-1],"loss_changes":[3.2397382E2,1.4370958E2,7.3897095E0,9.312093E1,1.4561563E2,1.8967633E0,0E0,0E0,0E0,0E0,0E0,0E0,0E0],"parents":[2147483647,0,0,1,1,2,2,3,3,4,4,5,5],"right_children":[2,4,6,8,10,12,-1,-1,-1,-1,-1,-1,-1],"split_conditions":[-5.774066E-1,3.649602E-1,-4.5421997E-1,4.6367872E-1,-3.110503E-1,-6.0044104E-1,-2.7960366E-2,-1.8004744E-3,7.573669E-2,1.3063006E-1,3.790158E-3,-2.20421E-2,-3.926614E-3],"split_indices":[7,6,7,5,9,8,0,0,0,0,0,0,0],"split_type":[0,0,0,0,0,0,0,0,0,0,0,0,0],"sum_hessian":[8.0684064E2,3.1752798E2,4.8931265E2,2.1669267E2,1.0083531E2,6.616095E1,4.231517E2,1.673276E2,4.936506E1,6.677556E1,3.405976E1,2.0553028E1,4.560792E1],"tree_param":{"num_deleted":"0","num_feature":"12","num_nodes":"13","size_leaf_vector":"1"}},{"base_weights":[-1.9309527E-4,-2.687306E-1,5.6535643E-1,-5.6101614E-1,4.9979892E-1,1.2378014E0,-3.0340934E-2,-2.8710678E-2,-1.5079878E-2,-2.819801E-2,4.6806984E-2,1.6998332E-2,8.612807E-2],"categories":[],"categories_nodes":[],"categories_segments":[],"categories_sizes":[],"default_left":[0,0,0,0,0,0,0,0,0,0,0,0,0],"id":10,"left_children":[1,3,5,7,9,11,-1,-1,-1,-1,-1,-1,-1],"loss_changes":[1.8422037E2,1.8503229E2,3.085769E2,1.8684387E0,1.0595938E2,1.0756769E2,0E0,0E0,0E0,0E0,0E0,0E0,0E0],"parents":[2147483647,0,0,1,1,2,2,3,3,4,4,5,5],"right_children":[2,4,6,8,10,12,-1,-1,-1,-1,-1,-1,-1],"split_conditions":[4.6367872E-1,3.8257515E-1,1.2857913E0,4.2348492E-1,-3.14122E-1,-5.6200826E-1,-3.0340934E-2,-2.8710678E-2,-1.5079878E-2,-2.819801E-2,4.6806984E-2,1.6998332E-2,8.612807E-2],"split_indices":[5,6,7,7,8,7,0,0,0,0,0,0,0],"split_type":[0,0,0,0,0,0,0,0,0,0,0,0,0],"sum_hessian":[1.211003E3,8.214718E2,3.895312E2,5.95328E2,2.2614386E2,2.474944E2,1.4203679E2,5.653533E2,2.9974697E1,6.56944E1,1.6044946E2,8.7372025E1,1.6012238E2],"tree_param":{"num_deleted":"0","num_feature":"12","num_nodes":"13","size_leaf_vector":"1"}},{"base_weights":[-1.927313E-3,-5.5722475E-1,2.4198208E0,-5.6519127E-1,2.543533E-1,1.6536928E0,2.5627332E0,-2.845937E-2,-1.26603125E-2,3.5527095E-2,-2.1270424E-2,-1.7931163E-2,1.11124136E-1,1.0043035E-1,1.3329051E-1],"categories":[],"categories_nodes":[],"categories_segments":[],"categories_sizes":[],"default_left":[0,0,0,0,0,0,0,0,0,0,0,0,0,0,0],"id":11,"left_children":[1,3,5,7,9,11,13,-1,-1,-1,-1,-1,-1,-1,-1],"loss_changes":[1.223867E3,4.9302826E0,1.4348145E1,7.702637E-1,2.7477458E0,3.4569847E1,2.7132568E0,0E0,0E0,0E0,0E0,0E0,0E0,0E0,0E0],"parents":[2147483647,0,0,1,1,2,2,3,3,4,4,5,5,6,6],"right_children":[2,4,6,8,10,12,14,-1,-1,-1,-1,-1,-1,-1,-1],"split_conditions":[1.2857913E0,1.1626046E0,5.378283E-1,8.5463816E-1,4.1919065E-1,3.8257515E-1,-2.9564974E-1,-2.845937E-2,-1.26603125E-2,3.5527095E-2,-2.1270424E-2,-1.7931163E-2,1.11124136E-1,1.0043035E-1,1.3329051E-1],"split_indices":[7,7,5,7,9,6,8,0,0,0,0,0,0,0,0],"split_type":[0,0,0,0,0,0,0,0,0,0,0,0,0,0,0],"sum_hessian":[9.080773E2,7.3932324E2,1.6875404E2,7.3243713E2,6.8860965E0,2.8506594E1,1.4024745E2,7.223602E2,1.0076955E1,4.093599E0,2.7924976E0,6.363329E0,2.2143265E1,2.5209824E1,1.1503763E2],"tree_param":{"num_deleted":"0","num_feature":"12","num_nodes":"15","size_leaf_vector":"1"}},{"base_weights":[1.402734E-3,3.5462323E-1,-8.505773E-1,6.783807E-1,-4.9143773E-1,-1.5821102E-1,-5.0480902E-2,3.8569212E-2,2.8811712E-2,3.5218693E-2,-5.0625242E-2,2.8868243E-2,-4.9399007E-2],"categories":[],"categories_nodes":[],"categories_segments":[],"categories_sizes":[],"default_left":[0,0,0,0,0,0,0,0,0,0,0,0,0],"id":12,"left_children":[1,3,5,7,9,11,-1,-1,-1,-1,-1,-1,-1],"loss_changes":[5.8525323E2,3.7691516E2,6.2602722E1,9.005371E0,2.3815482E2,6.6278946E1,0E0,0E0,0E0,0E0,0E0,0E0,0E0],"parents":[2147483647,0,0,1,1,2,2,3,3,4,4,5,5],"right_children":[2,4,6,8,10,12,-1,-1,-1,-1,-1,-1,-1],"split_conditions":[5.378283E-1,3.8257515E-1,-2.9564974E-1,-2.9564974E-1,-3.14122E-1,3.4734523E-1,-5.0480902E-2,3.8569212E-2,2.8811712E-2,3.5218693E-2,-5.0625242E-2,2.8868243E-2,-4.9399007E-2],"split_indices":[5,6,8,8,8,6,0,0,0,0,0,0,0],"split_type":[0,0,0,0,0,0,0,0,0,0,0,0,0],"sum_hessian":[1.9427688E3,1.3737943E3,5.6897455E2,9.93728E2,3.8006625E2,1.0665568E2,4.6231888E2,5.167134E2,4.7701468E2,1.152421E2,2.6482416E2,5.669804E1,4.9957638E1],"tree_param":{"num_deleted":"0","num_feature":"12","num_nodes":"13","size_leaf_vector":"1"}},{"base_weights":[-6.0951395E-5,7.413947E-1,-5.076385E-1,3.143401E-1,1.5911748E0,-1.9078793E-1,-2.786441E-2,-1.4749342E-3,6.864941E-2,1.14830695E-1,3.2357152E-3,-2.1746753E-2,-3.840273E-3],"categories":[],"categories_nodes":[],"categories_segments":[],"categories_sizes":[],"default_left":[0,0,0,0,0,0,0,0,0,0,0,0,0],"id":13,"left_children":[1,3,5,7,9,11,-1,-1,-1,-1,-1,-1,-1],"loss_changes":[3.0346173E2,1.18414276E2,7.4237213E0,7.987633E1,1.17601685E2,1.8134184E0,0E0,0E0,0E0,0E0,0E0,0E0,0E0],"parents":[2147483647,0,0,1,1,2,2,3,3,4,4,5,5],"right_children":[2,4,6,8,10,12,-1,-1,-1,-1,-1,-1,-1],"split_conditions":[-5.774066E-1,3.649602E-1,-4.5421997E-1,4.6367872E-1,-3.110503E-1,-6.0044104E-1,-2.786441E-2,-1.4749342E-3,6.864941E-2,1.14830695E-1,3.2357152E-3,-2.1746753E-2,-3.840273E-3],"split_indices":[7,6,7,5,9,8,0,0,0,0,0,0,0],"split_type":[0,0,0,0,0,0,0,0,0,0,0,0,0],"sum_hessian":[8.043364E2,3.266761E2,4.776603E2,2.183266E2,1.083495E2,6.536448E1,4.122958E2,1.6553465E2,5.279194E1,7.375828E1,3.4591225E1,1.9907465E1,4.5457016E1],"tree_param":{"num_deleted":"0","num_feature":"12","num_nodes":"13","size_leaf_vector":"1"}},{"base_weights":[-1.786833E-4,-5.08941E-1,2.7961177E-1,-5.830628E-1,-7.815087E-2,4.6879166E-1,-3.0189011E-2,-2.9810337E-2,-2.455877E-2,1.2938909E-2,-2.9462619E-2,-3.1946597E-3,7.253518E-2],"categories":[],"categories_nodes":[],"categories_segments":[],"categories_sizes":[],"default_left":[0,0,0,0,0,0,0,0,0,0,0,0,0],"id":14,"left_children":[1,3,5,7,9,11,-1,-1,-1,-1,-1,-1,-1],"loss_changes":[1.7216917E2,1.3657631E1,1.3069592E2,1.4918518E-1,1.1200247E1,3.3655945E2,0E0,0E0,0E0,0E0,0E0,0E0,0E0],"parents":[2147483647,0,0,1,1,2,2,3,3,4,4,5,5],"right_children":[2,4,6,8,10,12,-1,-1,-1,-1,-1,-1,-1],"split_conditions":[-3.14122E-1,5.54572E-1,1.2857913E0,4.2699505E-2,1.2857913E0,-4.6961826E-1,-3.0189011E-2,-2.9810337E-2,-2.455877E-2,1.2938909E-2,-2.9462619E-2,-3.1946597E-3,7.253518E-2],"split_indices":[8,5,7,5,7,7,0,0,0,0,0,0,0],"split_type":[0,0,0,0,0,0,0,0,0,0,0,0,0],"sum_hessian":[1.2075051E3,4.2815048E2,7.793547E2,3.6499576E2,6.3154724E1,6.422789E2,1.370758E2,3.1451773E2,5.0478024E1,3.8360405E1,2.4794317E1,4.16995E2,2.2528386E2],"tree_param":{"num_deleted":"0","num_feature":"12","num_nodes":"13","size_leaf_vector":"1"}},{"base_weights":[-2.7179343E-3,-5.5446523E-1,2.1273127E0,-5.6260973E-1,2.4224612E-1,1.5126816E0,2.2452805E0,-2.833434E-2,-1.2622766E-2,3.421193E-2,-2.1289675E-2,1.4960672E-3,9.878444E-2,7.007712E-2,1.1416855E-1],"categories":[],"categories_nodes":[],"categories_segments":[],"categories_sizes":[],"default_left":[0,0,0,0,0,0,0,0,0,0,0,0,0,0,0],"id":15,"left_children":[1,3,5,7,9,11,13,-1,-1,-1,-1,-1,-1,-1,-1],"loss_changes":[1.0655605E3,4.8090973E0,1.0128967E1,7.5871277E-1,2.64942E0,2.266677E1,1.7630615E0,0E0,0E0,0E0,0E0,0E0,0E0,0E0,0E0],"parents":[2147483647,0,0,1,1,2,2,3,3,4,4,5,5,6,6],"right_children":[2,4,6,8,10,12,14,-1,-1,-1,-1,-1,-1,-1,-1],"split_conditions":[1.2857913E0,1.1626046E0,-2.9564974E-1,8.5463816E-1,9.1774456E-2,3.4734523E-1,1.8143125E-1,-2.833434E-2,-1.2622766E-2,3.421193E-2,-2.1289675E-2,1.4960672E-3,9.878444E-2,7.007712E-2,1.1416855E-1],"split_indices":[7,7,8,7,2,6,5,0,0,0,0,0,0,0,0],"split_type":[0,0,0,0,0,0,0,0,0,0,0,0,0,0,0],"sum_hessian":[9.046723E2,7.191331E2,1.8553922E2,7.121469E2,6.9862094E0,3.2102596E1,1.5343661E2,7.020907E2,1.0056201E1,4.189848E0,2.7963612E0,7.8923416E0,2.4210253E1,8.260208E0,1.451764E2],"tree_param":{"num_deleted":"0","num_feature":"12","num_nodes":"15","size_leaf_vector":"1"}},{"base_weights":[1.6121767E-3,3.4476984E-1,-8.190887E-1,6.615485E-1,-4.7685134E-1,-1.4344996E-1,-9.703266E-1,3.8140707E-2,2.8719623E-2,3.435494E-2,-4.8895482E-2,2.8905928E-2,-4.7807157E-2,-1.8908774E-2,-4.860173E-2],"categories":[],"categories_nodes":[],"categories_segments":[],"categories_sizes":[],"default_left":[0,0,0,0,0,0,0,0,0,0,0,0,0,0,0],"id":16,"left_children":[1,3,5,7,9,11,13,-1,-1,-1,-1,-1,-1,-1,-1],"loss_changes":[5.438152E2,3.547075E2,5.80365E1,8.239014E0,2.219843E2,6.2305702E1,1.027832E-1,0E0,0E0,0E0,0E0,0E0,0E0,0E0,0E0],"parents":[2147483647,0,0,1,1,2,2,3,3,4,4,5,5,6,6],"right_children":[2,4,6,8,10,12,14,-1,-1,-1,-1,-1,-1,-1,-1],"split_conditions":[5.378283E-1,3.8257515E-1,-3.14122E-1,-5.6349665E-1,-3.14122E-1,3.4734523E-1,-2.9564974E-1,3.8140707E-2,2.8719623E-2,3.435494E-2,-4.8895482E-2,2.8905928E-2,-4.7807157E-2,-1.8908774E-2,-4.860173E-2],"split_indices":[5,6,8,8,8,6,8,0,0,0,0,0,0,0,0],"split_type":[0,0,0,0,0,0,0,0,0,0,0,0,0,0,0],"sum_hessian":[1.9289548E3,1.3606215E3,5.6833344E2,9.821465E2,3.7847488E2,1.0430607E2,4.6402737E2,4.5071445E2,5.3143207E2,1.1378437E2,2.6469052E2,5.5403458E1,4.8902607E1,1.974315E0,4.6205304E2],"tree_param":{"num_deleted":"0","num_feature":"12","num_nodes":"15","size_leaf_vector":"1"}},{"base_weights":[2.8747463E-4,7.015452E-1,-5.046626E-1,3.0800572E-1,1.4385602E0,-1.866491E-1,-2.7768591E-2,-1.0576192E-3,6.2433857E-2,1.0195499E-1,2.5287485E-3,-2.1461284E-2,-3.8264215E-3],"categories":[],"categories_nodes":[],"categories_segments":[],"categories_sizes":[],"default_left":[0,0,0,0,0,0,0,0,0,0,0,0,0],"id":17,"left_children":[1,3,5,7,9,11,-1,-1,-1,-1,-1,-1,-1],"loss_changes":[2.843754E2,9.706862E1,7.4256363E0,6.828126E1,9.721701E1,1.7226331E0,0E0,0E0,0E0,0E0,0E0,0E0,0E0],"parents":[2147483647,0,0,1,1,2,2,3,3,4,4,5,5],"right_children":[2,4,6,8,10,12,-1,-1,-1,-1,-1,-1,-1],"split_conditions":[-5.774066E-1,3.649602E-1,-4.5421997E-1,4.6367872E-1,-3.110503E-1,-6.0044104E-1,-2.7768591E-2,-1.0576192E-3,6.2433857E-2,1.0195499E-1,2.5287485E-3,-2.1461284E-2,-3.8264215E-3],"split_indices":[7,6,7,5,9,8,0,0,0,0,0,0,0],"split_type":[0,0,0,0,0,0,0,0,0,0,0,0,0],"sum_hessian":[8.010934E2,3.3519562E2,4.6589774E2,2.1944032E2,1.1575529E2,6.471711E1,4.0118063E2,1.6328235E2,5.615797E1,8.0469475E1,3.5285816E1,1.9301502E1,4.541561E1],"tree_param":{"num_deleted":"0","num_feature":"12","num_nodes":"13","size_leaf_vector":"1"}},{"base_weights":[-1.8201696E-5,-5.0205225E-1,2.651468E-1,-5.776035E-1,-7.645423E-2,4.4419673E-1,-3.0032784E-2,-2.9559014E-2,-2.4154834E-2,1.2586067E-2,-2.9298315E-2,-4.6455483E-3,6.423374E-2],"categories":[],"categories_nodes":[],"categories_segments":[],"categories_sizes":[],"default_left":[0,0,0,0,0,0,0,0,0,0,0,0,0],"id":18,"left_children":[1,3,5,7,9,11,-1,-1,-1,-1,-1,-1,-1],"loss_changes":[1.6036812E2,1.3343903E1,1.2247121E2,1.6790771E-1,1.0835933E1,2.9525903E2,0E0,0E0,0E0,0E0,0E0,0E0,0E0],"parents":[2147483647,0,0,1,1,2,2,3,3,4,4,5,5],"right_children":[2,4,6,8,10,12,-1,-1,-1,-1,-1,-1,-1],"split_conditions":[-3.14122E-1,5.54572E-1,1.2857913E0,4.2699505E-2,1.2857913E0,-5.004149E-1,-3.0032784E-2,-2.9559014E-2,-2.4154834E-2,1.2586067E-2,-2.9298315E-2,-4.6455483E-3,6.423374E-2],"split_indices":[8,5,7,5,7,7,0,0,0,0,0,0,0],"split_type":[0,0,0,0,0,0,0,0,0,0,0,0,0],"sum_hessian":[1.2026716E3,4.1536743E2,7.8730414E2,3.52445E2,6.292243E1,6.527922E2,1.3451198E2,3.0357794E2,4.8867073E1,3.857945E1,2.4342981E1,3.9881735E2,2.5397482E2],"tree_param":{"num_deleted":"0","num_feature":"12","num_nodes":"13","size_leaf_vector":"1"}},{"base_weights":[-3.685587E-3,-5.517986E-1,1.8976305E0,-5.601298E-1,2.306287E-1,1.358715E0,1.9928558E0,-2.8214743E-2,-1.2567555E-2,3.3085104E-2,-2.1338457E-2,-2.4389286E-2,8.7975495E-2,8.247264E-2,1.0260015E-1],"categories":[],"categories_nodes":[],"categories_segments":[],"categories_sizes":[],"default_left":[0,0,0,0,0,0,0,0,0,0,0,0,0,0,0],"id":19,"left_children":[1,3,5,7,9,11,13,-1,-1,-1,-1,-1,-1,-1,-1],"loss_changes":[9.3983826E2,4.692398E0,7.6486206E0,7.493286E-1,2.573194E0,2.5611118E1,5.5236816E-2,0E0,0E0,0E0,0E0,0E0,0E0,0E0,0E0],"parents":[2147483647,0,0,1,1,2,2,3,3,4,4,5,5,6,6],"right_children":[2,4,6,8,10,12,14,-1,-1,-1,-1,-1,-1,-1,-1],"split_conditions":[1.2857913E0,1.1626046E0,5.378283E-1,8.5463816E-1,4.1919065E-1,2.4165548E-1,-2.9564974E-1,-2.8214743E-2,-1.2567555E-2,3.3085104E-2,-2.1338457E-2,-2.4389286E-2,8.7975495E-2,8.247264E-2,1.0260015E-1],"split_indices":[7,7,5,7,9,6,8,0,0,0,0,0,0,0,0],"split_type":[0,0,0,0,0,0,0,0,0,0,0,0,0,0,0],"sum_hessian":[8.9983356E2,6.990272E2,2.0080637E2,6.9194354E2,7.083655E0,3.244674E1,1.6835963E2,6.8191785E2,1.0025723E1,4.2743206E0,2.809334E0,5.748015E0,2.6698723E1,2.8981676E1,1.3937796E2],"tree_param":{"num_deleted":"0","num_feature":"12","num_nodes":"15","size_leaf_vector":"1"}},{"base_weights":[1.747713E-3,3.3546743E-1,-7.904458E-1,6.4564496E-1,-4.637825E-1,-1.3583486E-1,-9.368662E-1,3.72055E-2,2.8087795E-2,3.3546064E-2,-4.7347456E-2,2.8463472E-2,-4.6429116E-2,-1.825053E-2,-4.692629E-2],"categories":[],"categories_nodes":[],"categories_segments":[],"categories_sizes":[],"default_left":[0,0,0,0,0,0,0,0,0,0,0,0,0,0,0],"id":20,"left_children":[1,3,5,7,9,11,13,-1,-1,-1,-1,-1,-1,-1,-1],"loss_changes":[5.0604065E2,3.3417944E2,5.4252167E1,7.599823E0,2.0739175E2,5.9150604E1,9.729004E-2,0E0,0E0,0E0,0E0,0E0,0E0,0E0,0E0],"parents":[2147483647,0,0,1,1,2,2,3,3,4,4,5,5,6,6],"right_children":[2,4,6,8,10,12,14,-1,-1,-1,-1,-1,-1,-1,-1],"split_conditions":[5.378283E-1,3.8257515E-1,-3.14122E-1,-5.6349665E-1,-3.14122E-1,3.4734523E-1,-2.9564974E-1,3.72055E-2,2.8087795E-2,3.3546064E-2,-4.7347456E-2,2.8463472E-2,-4.6429116E-2,-1.825053E-2,-4.692629E-2],"split_indices":[5,6,8,8,8,6,8,0,0,0,0,0,0,0,0],"split_type":[0,0,0,0,0,0,0,0,0,0,0,0,0,0,0],"sum_hessian":[1.9121307E3,1.3457825E3,5.6634827E2,9.696624E2,3.7612003E2,1.0387509E2,4.6247318E2,4.424574E2,5.2720496E2,1.1220979E2,2.6391025E2,5.5125744E1,4.8749348E1,1.9775702E0,4.604956E2],"tree_param":{"num_deleted":"0","num_feature":"12","num_nodes":"15","size_leaf_vector":"1"}},{"base_weights":[7.5588026E-4,6.654082E-1,-5.016428E-1,1.0248703E0,-1.0520606E-2,-1.8165778E-1,-2.7675008E-2,2.5166338E-2,9.1773964E-2,9.645696E-3,-1.1658066E-2,-2.117101E-2,-3.735919E-3],"categories":[],"categories_nodes":[],"categories_segments":[],"categories_sizes":[],"default_left":[0,0,0,0,0,0,0,0,0,0,0,0,0],"id":21,"left_children":[1,3,5,7,9,11,-1,-1,-1,-1,-1,-1,-1],"loss_changes":[2.668022E2,8.358232E1,7.4502335E0,9.401036E1,5.4983826E0,1.6475501E0,0E0,0E0,0E0,0E0,0E0,0E0,0E0],"parents":[2147483647,0,0,1,1,2,2,3,3,4,4,5,5],"right_children":[2,4,6,8,10,12,-1,-1,-1,-1,-1,-1,-1],"split_conditions":[-5.774066E-1,-2.852012E-1,-4.5421997E-1,3.649602E-1,-7.313899E-1,-6.0044104E-1,-2.7675008E-2,2.5166338E-2,9.1773964E-2,9.645696E-3,-1.1658066E-2,-2.117101E-2,-3.735919E-3],"split_indices":[7,9,7,6,7,8,0,0,0,0,0,0,0],"split_type":[0,0,0,0,0,0,0,0,0,0,0,0,0],"sum_hessian":[7.9699963E2,3.429572E2,4.540424E2,2.2355394E2,1.1940328E2,6.394903E1,3.9009338E2,1.3701791E2,8.653602E1,6.246258E1,5.69407E1,1.8704205E1,4.5244827E1],"tree_param":{"num_deleted":"0","num_feature":"12","num_nodes":"13","size_leaf_vector":"1"}},{"base_weights":[2.3333E-4,-4.9534652E-1,2.520597E-1,-5.724162E-1,-7.413391E-2,4.219218E-1,-2.987271E-2,-2.9321967E-2,-2.3764258E-2,-2.330142E-2,1.7238475E-2,-4.527473E-3,5.9383523E-2],"categories":[],"categories_nodes":[],"categories_segments":[],"categories_sizes":[],"default_left":[0,0,0,0,0,0,0,0,0,0,0,0,0],"id":22,"left_children":[1,3,5,7,9,11,-1,-1,-1,-1,-1,-1,-1],"loss_changes":[1.4957454E2,1.306665E1,1.1492647E2,1.8602753E-1,1.0602919E1,2.6022858E2,0E0,0E0,0E0,0E0,0E0,0E0,0E0],"parents":[2147483647,0,0,1,1,2,2,3,3,4,4,5,5],"right_children":[2,4,6,8,10,12,-1,-1,-1,-1,-1,-1,-1],"split_conditions":[-3.14122E-1,5.54572E-1,1.2857913E0,4.2699505E-2,4.3542004E-1,-5.004149E-1,-2.987271E-2,-2.9321967E-2,-2.3764258E-2,-2.330142E-2,1.7238475E-2,-4.527473E-3,5.9383523E-2],"split_indices":[8,5,7,5,6,7,0,0,0,0,0,0,0],"split_type":[0,0,0,0,0,0,0,0,0,0,0,0,0],"sum_hessian":[1.1965128E3,4.028197E2,7.936931E2,3.4021182E2,6.2607872E1,6.6185675E2,1.3183633E2,2.9288904E2,4.73228E1,3.2288597E1,3.0319275E1,3.970296E2,2.6482718E2],"tree_param":{"num_deleted":"0","num_feature":"12","num_nodes":"13","size_leaf_vector":"1"}},{"base_weights":[-4.724737E-3,-5.49216E-1,1.7152799E0,-5.5774236E-1,2.1996999E-1,1.316679E0,1.8159539E0,-2.8100088E-2,-1.2500115E-2,3.1751454E-2,-2.129957E-2,-1.740604E-2,7.8558944E-2,4.85668E-2,9.145834E-2],"categories":[],"categories_nodes":[],"categories_segments":[],"categories_sizes":[],"default_left":[0,0,0,0,0,0,0,0,0,0,0,0,0,0,0],"id":23,"left_children":[1,3,5,7,9,11,13,-1,-1,-1,-1,-1,-1,-1,-1],"loss_changes":[8.386429E2,4.58342E0,6.2493896E0,7.416382E-1,2.462074E0,2.048317E1,1.1218262E-1,0E0,0E0,0E0,0E0,0E0,0E0,0E0,0E0],"parents":[2147483647,0,0,1,1,2,2,3,3,4,4,5,5,6,6],"right_children":[2,4,6,8,10,12,14,-1,-1,-1,-1,-1,-1,-1,-1],"split_conditions":[1.2857913E0,1.1626046E0,3.4734523E-1,8.5463816E-1,9.1774456E-2,5.378283E-1,-5.5369467E-2,-2.8100088E-2,-1.2500115E-2,3.1751454E-2,-2.129957E-2,-1.740604E-2,7.8558944E-2,4.85668E-2,9.145834E-2],"split_indices":[7,7,6,7,2,5,5,0,0,0,0,0,0,0,0],"split_type":[0,0,0,0,0,0,0,0,0,0,0,0,0,0,0],"sum_hessian":[8.934754E2,6.7915894E2,2.1431645E2,6.719849E2,7.1740313E0,4.6053635E1,1.6826282E2,6.6199615E2,9.98879E0,4.377936E0,2.7960954E0,6.057948E0,3.9995686E1,3.7394426E0,1.6452338E2],"tree_param":{"num_deleted":"0","num_feature":"12","num_nodes":"15","size_leaf_vector":"1"}},{"base_weights":[1.8420987E-3,3.2726976E-1,-7.661972E-1,6.312135E-1,-4.5194727E-1,-1.2964389E-1,-9.082678E-1,3.6432426E-2,2.760376E-2,3.278436E-2,-4.5949277E-2,2.7739454E-2,-4.488164E-2,-1.7657964E-2,-4.5494504E-2],"categories":[],"categories_nodes":[],"categories_segments":[],"categories_sizes":[],"default_left":[0,0,0,0,0,0,0,0,0,0,0,0,0,0,0],"id":24,"left_children":[1,3,5,7,9,11,13,-1,-1,-1,-1,-1,-1,-1,-1],"loss_changes":[4.7362274E2,3.1551175E2,5.088376E1,6.98407E0,1.9410983E2,5.5199818E1,9.3688965E-2,0E0,0E0,0E0,0E0,0E0,0E0,0E0,0E0],"parents":[2147483647,0,0,1,1,2,2,3,3,4,4,5,5,6,6],"right_children":[2,4,6,8,10,12,14,-1,-1,-1,-1,-1,-1,-1,-1],"split_conditions":[5.378283E-1,3.8257515E-1,-3.14122E-1,-6.0044104E-1,-3.14122E-1,3.4734523E-1,-2.9564974E-1,3.6432426E-2,2.760376E-2,3.278436E-2,-4.5949277E-2,2.7739454E-2,-4.488164E-2,-1.7657964E-2,-4.5494504E-2],"split_indices":[5,6,8,8,8,6,8,0,0,0,0,0,0,0,0],"split_type":[0,0,0,0,0,0,0,0,0,0,0,0,0,0,0],"sum_hessian":[1.8929331E3,1.3299788E3,5.629544E2,9.5691254E2,3.7306616E2,1.03067696E2,4.598867E2,4.251994E2,5.3171313E2,1.1052932E2,2.6253687E2,5.4645313E1,4.8422382E1,1.9773338E0,4.5790936E2],"tree_param":{"num_deleted":"0","num_feature":"12","num_nodes":"15","size_leaf_vector":"1"}},{"base_weights":[1.3569554E-3,6.171684E-1,-5.1108164E-1,9.5762515E-1,-2.165086E-2,-2.1973592E-1,-2.7582629E-2,2.3862066E-2,8.359224E-2,9.24495E-3,-1.148635E-2,-3.2145677E-3,-2.0630596E-2],"categories":[],"categories_nodes":[],"categories_segments":[],"categories_sizes":[],"default_left":[0,0,0,0,0,0,0,0,0,0,0,0,0],"id":25,"left_children":[1,3,5,7,9,11,-1,-1,-1,-1,-1,-1,-1],"loss_changes":[2.507146E2,7.850185E1,5.0045395E0,7.9973816E1,5.4762473E0,1.6124845E0,0E0,0E0,0E0,0E0,0E0,0E0,0E0],"parents":[2147483647,0,0,1,1,2,2,3,3,4,4,5,5],"right_children":[2,4,6,8,10,12,-1,-1,-1,-1,-1,-1,-1],"split_conditions":[-5.6200826E-1,-2.852012E-1,-4.5421997E-1,3.649602E-1,-7.313899E-1,2.4719577E-2,-2.7582629E-2,2.3862066E-2,8.359224E-2,9.24495E-3,-1.148635E-2,-3.2145677E-3,-2.0630596E-2],"split_indices":[7,9,7,6,7,1,0,0,0,0,0,0,0],"split_type":[0,0,0,0,0,0,0,0,0,0,0,0,0],"sum_hessian":[7.9249335E2,3.5984882E2,4.3264453E2,2.3441763E2,1.25431175E2,5.3667404E1,3.7897714E2,1.4114905E2,9.3268585E1,6.3002346E1,6.2428825E1,3.0455627E1,2.3211777E1],"tree_param":{"num_deleted":"0","num_feature":"12","num_nodes":"13","size_leaf_vector":"1"}},{"base_weights":[4.7954178E-4,-4.8878276E-1,2.3994237E-1,-5.67443E-1,-7.1412556E-2,4.0139157E-1,-2.9711893E-2,-2.9096944E-2,-2.3378467E-2,1.2599167E-2,-2.9149612E-2,-5.15305E-3,5.4227848E-2],"categories":[],"categories_nodes":[],"categories_segments":[],"categories_sizes":[],"default_left":[0,0,0,0,0,0,0,0,0,0,0,0,0],"id":26,"left_children":[1,3,5,7,9,11,-1,-1,-1,-1,-1,-1,-1],"loss_changes":[1.395608E2,1.2810417E1,1.0794866E2,2.0452881E-1,1.0605758E1,2.312416E2,0E0,0E0,0E0,0E0,0E0,0E0,0E0],"parents":[2147483647,0,0,1,1,2,2,3,3,4,4,5,5],"right_children":[2,4,6,8,10,12,-1,-1,-1,-1,-1,-1,-1],"split_conditions":[-3.14122E-1,5.54572E-1,1.2857913E0,4.2699505E-2,1.2857913E0,-5.158133E-1,-2.9711893E-2,-2.9096944E-2,-2.3378467E-2,1.2599167E-2,-2.9149612E-2,-5.15305E-3,5.4227848E-2],"split_indices":[8,5,7,5,7,7,0,0,0,0,0,0,0],"split_type":[0,0,0,0,0,0,0,0,0,0,0,0,0],"sum_hessian":[1.1891959E3,3.9043378E2,7.9876215E2,3.2821643E2,6.2217346E1,6.6967126E2,1.2909091E2,2.824014E2,4.5815037E1,3.8430737E1,2.378661E1,3.8571017E2,2.8396106E2],"tree_param":{"num_deleted":"0","num_feature":"12","num_nodes":"13","size_leaf_vector":"1"}},{"base_weights":[-5.792227E-3,-5.511335E-1,1.5557448E0,-2.7991444E-2,-1.5365584E-1,1.1829337E0,1.6381842E0,2.39215E-2,-1.2620698E-2,-1.7134437E-2,7.1112305E-2,1.6328355E-2,8.24705E-2],"categories":[],"categories_nodes":[],"categories_segments":[],"categories_sizes":[],"default_left":[0,0,0,0,0,0,0,0,0,0,0,0,0],"id":27,"left_children":[1,3,5,-1,7,9,11,-1,-1,-1,-1,-1,-1],"loss_changes":[7.5599536E2,2.188095E0,5.1245728E0,0E0,1.0860928E0,1.699356E1,2.1938477E0,0E0,0E0,0E0,0E0,0E0,0E0],"parents":[2147483647,0,0,1,1,2,2,4,4,5,5,6,6],"right_children":[2,4,6,-1,8,10,12,-1,-1,-1,-1,-1,-1],"split_conditions":[1.2395964E0,8.5463816E-1,2.4165548E-1,-2.7991444E-2,-1.2763926E0,5.378283E-1,1.2857913E0,2.39215E-2,-1.2620698E-2,-1.7134437E-2,7.1112305E-2,1.6328355E-2,8.24705E-2],"split_indices":[7,7,6,0,0,5,7,0,0,0,0,0,0],"split_type":[0,0,0,0,0,0,0,0,0,0,0,0,0],"sum_hessian":[8.8575916E2,6.5697015E2,2.2878903E2,6.425059E2,1.4464188E1,4.4209988E1,1.8457904E2,1.4350314E0,1.3029156E1,5.9359837E0,3.8274006E1,1.8217118E0,1.8275732E2],"tree_param":{"num_deleted":"0","num_feature":"12","num_nodes":"13","size_leaf_vector":"1"}},{"base_weights":[1.9619656E-3,3.1962445E-1,-7.437981E-1,6.1759305E-1,-4.4107565E-1,-1.2283677E-1,-8.824798E-1,3.5637196E-2,2.706488E-2,3.2079495E-2,-4.4682812E-2,2.726368E-2,-4.3679964E-2,-1.707258E-2,-4.4203874E-2],"categories":[],"categories_nodes":[],"categories_segments":[],"categories_sizes":[],"default_left":[0,0,0,0,0,0,0,0,0,0,0,0,0,0,0],"id":28,"left_children":[1,3,5,7,9,11,13,-1,-1,-1,-1,-1,-1,-1,-1],"loss_changes":[4.438982E2,2.9812003E2,4.8093323E1,6.47171E0,1.8208118E2,5.2314426E1,9.347534E-2,0E0,0E0,0E0,0E0,0E0,0E0,0E0,0E0],"parents":[2147483647,0,0,1,1,2,2,3,3,4,4,5,5,6,6],"right_children":[2,4,6,8,10,12,14,-1,-1,-1,-1,-1,-1,-1,-1],"split_conditions":[5.378283E-1,3.8257515E-1,-3.14122E-1,-6.0044104E-1,-3.14122E-1,3.4734523E-1,-2.9564974E-1,3.5637196E-2,2.706488E-2,3.2079495E-2,-4.4682812E-2,2.726368E-2,-4.3679964E-2,-1.707258E-2,-4.4203874E-2],"split_indices":[5,6,8,8,8,6,8,0,0,0,0,0,0,0,0],"split_type":[0,0,0,0,0,0,0,0,0,0,0,0,0,0,0],"sum_hessian":[1.8717753E3,1.3130448E3,5.587305E2,9.436157E2,3.6942908E2,1.02347046E2,4.5638348E2,4.1620657E2,5.274091E2,1.0878217E2,2.6064688E2,5.429931E1,4.804774E1,1.9759262E0,4.5440756E2],"tree_param":{"num_deleted":"0","num_feature":"12","num_nodes":"15","size_leaf_vector":"1"}},{"base_weights":[2.0787225E-3,5.879716E-1,-5.082674E-1,9.0427744E-1,-2.2369182E-2,-2.1391939E-1,-2.7492955E-2,2.313907E-2,7.6758206E-2,8.866671E-3,-1.1341547E-2,-2.9609993E-3,-2.0412551E-2],"categories":[],"categories_nodes":[],"categories_segments":[],"categories_sizes":[],"default_left":[0,0,0,0,0,0,0,0,0,0,0,0,0],"id":29,"left_children":[1,3,5,7,9,11,-1,-1,-1,-1,-1,-1,-1],"loss_changes":[2.3601404E2,7.096034E1,5.0469894E0,6.671007E1,5.2016172E0,1.5952027E0,0E0,0E0,0E0,0E0,0E0,0E0,0E0],"parents":[2147483647,0,0,1,1,2,2,3,3,4,4,5,5],"right_children":[2,4,6,8,10,12,-1,-1,-1,-1,-1,-1,-1],"split_conditions":[-5.6200826E-1,-2.852012E-1,-4.5421997E-1,3.649602E-1,-7.313899E-1,2.4719577E-2,-2.7492955E-2,2.313907E-2,7.6758206E-2,8.866671E-3,-1.1341547E-2,-2.9609993E-3,-2.0412551E-2],"split_indices":[7,9,7,6,7,1,0,0,0,0,0,0,0],"split_type":[0,0,0,0,0,0,0,0,0,0,0,0,0],"sum_hessian":[7.873235E2,3.6646194E2,4.2086157E2,2.4105495E2,1.25407E2,5.2866215E1,3.6799536E2,1.4283336E2,9.822159E1,6.3508972E1,6.189802E1,3.0161013E1,2.2705202E1],"tree_param":{"num_deleted":"0","num_feature":"12","num_nodes":"13","size_leaf_vector":"1"}},{"base_weights":[7.484765E-4,-4.8232388E-1,2.2878993E-1,-5.6267464E-1,-6.867758E-2,3.824479E-1,-2.9548092E-2,-2.8883507E-2,-2.2997404E-2,1.22171035E-2,-2.8942987E-2,-5.016524E-3,5.0665744E-2],"categories":[],"categories_nodes":[],"categories_segments":[],"categories_sizes":[],"default_left":[0,0,0,0,0,0,0,0,0,0,0,0,0],"id":30,"left_children":[1,3,5,7,9,11,-1,-1,-1,-1,-1,-1,-1],"loss_changes":[1.303051E2,1.2568886E1,1.01440994E2,2.2338104E-1,1.0176448E1,2.0638727E2,0E0,0E0,0E0,0E0,0E0,0E0,0E0],"parents":[2147483647,0,0,1,1,2,2,3,3,4,4,5,5],"right_children":[2,4,6,8,10,12,-1,-1,-1,-1,-1,-1,-1],"split_conditions":[-3.14122E-1,5.54572E-1,1.2857913E0,4.2699505E-2,1.2857913E0,-5.158133E-1,-2.9548092E-2,-2.8883507E-2,-2.2997404E-2,1.22171035E-2,-2.8942987E-2,-5.016524E-3,5.0665744E-2],"split_indices":[8,5,7,5,7,7,0,0,0,0,0,0,0],"split_type":[0,0,0,0,0,0,0,0,0,0,0,0,0],"sum_hessian":[1.1808639E3,3.783243E2,8.025396E2,3.164865E2,6.1837788E1,6.7630365E2,1.2623596E2,2.7213785E2,4.4348663E1,3.8647118E1,2.319067E1,3.8359442E2,2.9270923E2],"tree_param":{"num_deleted":"0","num_feature":"12","num_nodes":"13","size_leaf_vector":"1"}},{"base_weights":[-7.059735E-3,-5.4882807E-1,1.4336852E0,-2.7887145E-2,-1.5249923E-1,1.0597692E0,1.5032604E0,1.0456467E-2,-1.6817842E-2,4.164474E-3,6.8185806E-2,1.3076966E-2,7.57369E-2],"categories":[],"categories_nodes":[],"categories_segments":[],"categories_sizes":[],"default_left":[0,0,0,0,0,0,0,0,0,0,0,0,0],"id":31,"left_children":[1,3,5,-1,7,9,11,-1,-1,-1,-1,-1,-1],"loss_changes":[6.860175E2,2.1716156E0,4.655182E0,0E0,1.0960541E0,1.2075623E1,2.4558105E0,0E0,0E0,0E0,0E0,0E0,0E0],"parents":[2147483647,0,0,1,1,2,2,4,4,5,5,6,6],"right_children":[2,4,6,-1,8,10,12,-1,-1,-1,-1,-1,-1],"split_conditions":[1.2395964E0,8.5463816E-1,-2.9564974E-1,-2.7887145E-2,-2.1411565E-1,3.8257515E-1,1.2857913E0,1.0456467E-2,-1.6817842E-2,4.164474E-3,6.8185806E-2,1.3076966E-2,7.57369E-2],"split_indices":[7,7,8,0,9,6,7,0,0,0,0,0,0],"split_type":[0,0,0,0,0,0,0,0,0,0,0,0,0],"sum_hessian":[8.7688184E2,6.377032E2,2.3917868E2,6.232762E2,1.442699E1,4.006899E1,1.991097E2,4.8163266E0,9.610662E0,9.813984E0,3.0255003E1,2.0414326E0,1.9706825E2],"tree_param":{"num_deleted":"0","num_feature":"12","num_nodes":"13","size_leaf_vector":"1"}},{"base_weights":[2.0562701E-3,3.1251177E-1,-7.236457E-1,6.047897E-1,-4.312343E-1,-1.1862996E-1,-8.5892963E-1,3.489821E-2,2.655617E-2,3.141221E-2,-4.3534447E-2,2.668043E-2,-4.262246E-2,-1.6844792E-2,-4.302336E-2],"categories":[],"categories_nodes":[],"categories_segments":[],"categories_sizes":[],"default_left":[0,0,0,0,0,0,0,0,0,0,0,0,0,0,0],"id":32,"left_children":[1,3,5,7,9,11,13,-1,-1,-1,-1,-1,-1,-1,-1],"loss_changes":[4.1696466E2,2.820298E2,4.528485E1,6.0191345E0,1.7107578E2,4.9511147E1,7.373047E-2,0E0,0E0,0E0,0E0,0E0,0E0,0E0,0E0],"parents":[2147483647,0,0,1,1,2,2,3,3,4,4,5,5,6,6],"right_children":[2,4,6,8,10,12,14,-1,-1,-1,-1,-1,-1,-1,-1],"split_conditions":[5.378283E-1,3.8257515E-1,-3.14122E-1,-6.0044104E-1,-3.14122E-1,3.4734523E-1,-2.9564974E-1,3.489821E-2,2.655617E-2,3.141221E-2,-4.3534447E-2,2.668043E-2,-4.262246E-2,-1.6844792E-2,-4.302336E-2],"split_indices":[5,6,8,8,8,6,8,0,0,0,0,0,0,0,0],"split_type":[0,0,0,0,0,0,0,0,0,0,0,0,0,0,0],"sum_hessian":[1.84872E3,1.2952017E3,5.535183E2,9.2994E2,3.6526166E2,1.01494125E2,4.5202417E2,4.0686038E2,5.230796E2,1.0696083E2,2.583008E2,5.387838E1,4.7615746E1,1.9738411E0,4.5005032E2],"tree_param":{"num_deleted":"0","num_feature":"12","num_nodes":"15","size_leaf_vector":"1"}},{"base_weights":[2.9040934E-3,5.613462E-1,-5.054399E-1,8.567876E-1,-2.3025215E-2,-2.0811157E-1,-2.7405037E-2,2.9710904E-2,8.813699E-2,-1.8271904E-2,4.5358655E-3,-2.7086E-3,-2.0195037E-2],"categories":[],"categories_nodes":[],"categories_segments":[],"categories_sizes":[],"default_left":[0,0,0,0,0,0,0,0,0,0,0,0,0],"id":33,"left_children":[1,3,5,7,9,11,-1,-1,-1,-1,-1,-1,-1],"loss_changes":[2.2243465E2,6.448182E1,5.0887146E0,5.795067E1,4.954207E0,1.5779309E0,0E0,0E0,0E0,0E0,0E0,0E0,0E0],"parents":[2147483647,0,0,1,1,2,2,3,3,4,4,5,5],"right_children":[2,4,6,8,10,12,-1,-1,-1,-1,-1,-1,-1],"split_conditions":[-5.6200826E-1,-2.852012E-1,-4.5421997E-1,5.378283E-1,-6.7834723E-1,2.4719577E-2,-2.7405037E-2,2.9710904E-2,8.813699E-2,-1.8271904E-2,4.5358655E-3,-2.7086E-3,-2.0195037E-2],"split_indices":[7,9,7,5,0,1,0,0,0,0,0,0,0],"split_type":[0,0,0,0,0,0,0,0,0,0,0,0,0],"sum_hessian":[7.8155035E2,3.72374E2,4.0917636E2,2.4702106E2,1.2535294E2,5.2079865E1,3.570965E2,1.9279866E2,5.4222397E1,3.0705029E1,9.464791E1,2.9870678E1,2.2209187E1],"tree_param":{"num_deleted":"0","num_feature":"12","num_nodes":"13","size_leaf_vector":"1"}},{"base_weights":[1.042141E-3,-2.39451E-1,4.3454197E-1,-5.383156E-1,4.2132488E-1,8.7621725E-1,-2.9421529E-2,-2.7633462E-2,-1.3502411E-2,-2.641013E-2,3.4972157E-2,1.5891042E-2,6.186056E-2],"categories":[],"categories_nodes":[],"categories_segments":[],"categories_sizes":[],"default_left":[0,0,0,0,0,0,0,0,0,0,0,0,0],"id":34,"left_children":[1,3,5,7,9,11,-1,-1,-1,-1,-1,-1,-1],"loss_changes":[1.2234814E2,1.4928966E2,1.8971478E2,1.8537598E0,6.2596443E1,5.8643417E1,0E0,0E0,0E0,0E0,0E0,0E0,0E0],"parents":[2147483647,0,0,1,1,2,2,3,3,4,4,5,5],"right_children":[2,4,6,8,10,12,-1,-1,-1,-1,-1,-1,-1],"split_conditions":[4.6367872E-1,3.8257515E-1,1.2857913E0,4.2348492E-1,-3.14122E-1,-2.852012E-1,-2.9421529E-2,-2.7633462E-2,-1.3502411E-2,-2.641013E-2,3.4972157E-2,1.5891042E-2,6.186056E-2],"split_indices":[5,6,7,7,8,9,0,0,0,0,0,0,0],"split_type":[0,0,0,0,0,0,0,0,0,0,0,0,0],"sum_hessian":[1.171563E3,7.538156E2,4.1774744E2,5.191795E2,2.3463611E2,2.9187283E2,1.25874596E2,4.9180527E2,2.7374199E1,5.2952168E1,1.8168394E2,1.1534073E2,1.7653212E2],"tree_param":{"num_deleted":"0","num_feature":"12","num_nodes":"13","size_leaf_vector":"1"}},{"base_weights":[-8.408974E-3,-5.466023E-1,1.3308042E0,-2.7787376E-2,-1.513718E-1,9.810937E-1,1.3923588E0,1.0145028E-2,-1.6696574E-2,-2.3947561E-2,6.068919E-2,1.5537614E-2,7.002859E-2],"categories":[],"categories_nodes":[],"categories_segments":[],"categories_sizes":[],"default_left":[0,0,0,0,0,0,0,0,0,0,0,0,0],"id":35,"left_children":[1,3,5,-1,7,9,11,-1,-1,-1,-1,-1,-1],"loss_changes":[6.26269E2,2.1561584E0,3.9959412E0,0E0,1.0632272E0,1.4397499E1,1.4251404E0,0E0,0E0,0E0,0E0,0E0,0E0],"parents":[2147483647,0,0,1,1,2,2,4,4,5,5,6,6],"right_children":[2,4,6,-1,8,10,12,-1,-1,-1,-1,-1,-1],"split_conditions":[1.2395964E0,8.5463816E-1,5.617477E-1,-2.7787376E-2,-2.1411565E-1,1.3596572E-1,1.2857913E0,1.0145028E-2,-1.6696574E-2,-2.3947561E-2,6.068919E-2,1.5537614E-2,7.002859E-2],"split_indices":[7,7,5,0,9,6,7,0,0,0,0,0,0],"split_type":[0,0,0,0,0,0,0,0,0,0,0,0,0],"sum_hessian":[8.6689685E2,6.18807E2,2.4808983E2,6.044153E2,1.4391717E1,3.9667118E1,2.0842271E2,4.8562794E0,9.535439E0,5.3073177E0,3.4359802E1,1.8633515E0,2.0655936E2],"tree_param":{"num_deleted":"0","num_feature":"12","num_nodes":"13","size_leaf_vector":"1"}},{"base_weights":[1.7106383E-3,3.0361807E-1,-7.0082057E-1,5.9007156E-1,-4.220122E-1,-1.0595447E-1,-8.3460325E-1,3.4219474E-2,2.5819167E-2,3.0739317E-2,-4.2444598E-2,2.6557688E-2,-4.1481502E-2,-1.6192775E-2,-4.1806854E-2],"categories":[],"categories_nodes":[],"categories_segments":[],"categories_sizes":[],"default_left":[0,0,0,0,0,0,0,0,0,0,0,0,0,0,0],"id":36,"left_children":[1,3,5,7,9,11,13,-1,-1,-1,-1,-1,-1,-1,-1],"loss_changes":[3.8694016E2,2.6547418E2,4.3550507E1,6.007721E0,1.6061896E2,4.7387592E1,7.9833984E-2,0E0,0E0,0E0,0E0,0E0,0E0,0E0,0E0],"parents":[2147483647,0,0,1,1,2,2,3,3,4,4,5,5,6,6],"right_children":[2,4,6,8,10,12,14,-1,-1,-1,-1,-1,-1,-1,-1],"split_conditions":[5.378283E-1,3.8257515E-1,-3.14122E-1,-6.0044104E-1,-3.14122E-1,3.4734523E-1,-2.9564974E-1,3.4219474E-2,2.5819167E-2,3.0739317E-2,-4.2444598E-2,2.6557688E-2,-4.1481502E-2,-1.6192775E-2,-4.1806854E-2],"split_indices":[5,6,8,8,8,6,8,0,0,0,0,0,0,0,0],"split_type":[0,0,0,0,0,0,0,0,0,0,0,0,0,0,0],"sum_hessian":[1.8223308E3,1.274984E3,5.4734686E2,9.142549E2,3.6072906E2,1.0082398E2,4.465229E2,3.9736127E2,5.168936E2,1.0507776E2,2.556513E2,5.3760468E1,4.7063515E1,1.9720854E0,4.4455078E2],"tree_param":{"num_deleted":"0","num_feature":"12","num_nodes":"15","size_leaf_vector":"1"}},{"base_weights":[4.609505E-3,5.3877586E-1,-5.0264114E-1,8.141059E-1,-2.0966584E-2,-2.0283031E-1,-2.7319709E-2,2.0926293E-2,6.8197936E-2,8.645954E-3,-1.1134879E-2,-2.5023625E-3,-1.998358E-2],"categories":[],"categories_nodes":[],"categories_segments":[],"categories_sizes":[],"default_left":[0,0,0,0,0,0,0,0,0,0,0,0,0],"id":37,"left_children":[1,3,5,7,9,11,-1,-1,-1,-1,-1,-1,-1],"loss_changes":[2.1069905E2,5.8388245E1,5.121277E0,5.4655273E1,4.9609623E0,1.5554359E0,0E0,0E0,0E0,0E0,0E0,0E0,0E0],"parents":[2147483647,0,0,1,1,2,2,3,3,4,4,5,5],"right_children":[2,4,6,8,10,12,-1,-1,-1,-1,-1,-1,-1],"split_conditions":[-5.6200826E-1,-2.852012E-1,-4.5421997E-1,3.649602E-1,-7.313899E-1,2.4719577E-2,-2.7319709E-2,2.0926293E-2,6.8197936E-2,8.645954E-3,-1.1134879E-2,-2.5023625E-3,-1.998358E-2],"split_indices":[7,9,7,6,7,1,0,0,0,0,0,0,0],"split_type":[0,0,0,0,0,0,0,0,0,0,0,0,0],"sum_hessian":[7.756134E2,3.7775345E2,3.9785992E2,2.5290053E2,1.24852936E2,5.1385372E1,3.4647455E2,1.4810828E2,1.04792244E2,6.3737255E1,6.111568E1,2.9636524E1,2.1748848E1],"tree_param":{"num_deleted":"0","num_feature":"12","num_nodes":"13","size_leaf_vector":"1"}},{"base_weights":[1.2299147E-3,-4.7086442E-1,2.103207E-1,-5.5394167E-1,-7.173299E-2,3.5156846E-1,-2.9263327E-2,-2.8496305E-2,-2.2299916E-2,-2.2780797E-2,1.5806066E-2,-4.9295933E-3,4.5642976E-2],"categories":[],"categories_nodes":[],"categories_segments":[],"categories_sizes":[],"default_left":[0,0,0,0,0,0,0,0,0,0,0,0,0],"id":38,"left_children":[1,3,5,7,9,11,-1,-1,-1,-1,-1,-1,-1],"loss_changes":[1.1483516E2,1.1801041E1,9.080864E1,2.5554657E-1,9.475089E0,1.7325049E2,0E0,0E0,0E0,0E0,0E0,0E0,0E0],"parents":[2147483647,0,0,1,1,2,2,3,3,4,4,5,5],"right_children":[2,4,6,8,10,12,-1,-1,-1,-1,-1,-1,-1],"split_conditions":[-3.14122E-1,5.54572E-1,1.2857913E0,4.2699505E-2,4.3542004E-1,-5.158133E-1,-2.9263327E-2,-2.8496305E-2,-2.2299916E-2,-2.2780797E-2,1.5806066E-2,-4.9295933E-3,4.5642976E-2],"split_indices":[8,5,7,5,6,7,0,0,0,0,0,0,0],"split_type":[0,0,0,0,0,0,0,0,0,0,0,0,0],"sum_hessian":[1.1613489E3,3.5609348E2,8.0525543E2,2.944229E2,6.1670555E1,6.8432007E2,1.209354E2,2.5272E2,4.1702915E1,3.0906153E1,3.0764404E1,3.8021146E2,3.0410858E2],"tree_param":{"num_deleted":"0","num_feature":"12","num_nodes":"13","size_leaf_vector":"1"}},{"base_weights":[-9.488992E-3,-5.4436004E-1,1.2446941E0,-2.7687406E-2,-1.4968356E-1,9.243806E-1,1.3040454E0,2.3529176E-2,-1.2416695E-2,3.2050603E-3,5.8983773E-2,1.2229589E-2,6.5668315E-2],"categories":[],"categories_nodes":[],"categories_segments":[],"categories_sizes":[],"default_left":[0,0,0,0,0,0,0,0,0,0,0,0,0],"id":39,"left_children":[1,3,5,-1,7,9,11,-1,-1,-1,-1,-1,-1],"loss_changes":[5.753195E2,2.1447601E0,3.6691284E0,0E0,1.0554574E0,9.481918E0,1.7909546E0,0E0,0E0,0E0,0E0,0E0,0E0],"parents":[2147483647,0,0,1,1,2,2,4,4,5,5,6,6],"right_children":[2,4,6,-1,8,10,12,-1,-1,-1,-1,-1,-1],"split_conditions":[1.2395964E0,8.5463816E-1,-2.9564974E-1,-2.7687406E-2,-1.2763926E0,3.8257515E-1,1.2857913E0,2.3529176E-2,-1.2416695E-2,3.2050603E-3,5.8983773E-2,1.2229589E-2,6.5668315E-2],"split_indices":[7,7,8,0,0,6,7,0,0,0,0,0,0],"split_type":[0,0,0,0,0,0,0,0,0,0,0,0,0],"sum_hessian":[8.556182E2,6.00212E2,2.5540622E2,5.8587286E2,1.4339148E1,4.251753E1,2.128887E2,1.4502758E0,1.2888872E1,1.001628E1,3.2501247E1,2.0942047E0,2.107945E2],"tree_param":{"num_deleted":"0","num_feature":"12","num_nodes":"13","size_leaf_vector":"1"}},{"base_weights":[1.7025094E-3,2.9724073E-1,-6.8439466E-1,5.78469E-1,-4.1378668E-1,-1.0380399E-1,-8.15016E-1,3.3575486E-2,2.5346378E-2,3.014317E-2,-4.1487675E-2,2.580055E-2,-4.047535E-2,-1.5981646E-2,-4.0825367E-2],"categories":[],"categories_nodes":[],"categories_segments":[],"categories_sizes":[],"default_left":[0,0,0,0,0,0,0,0,0,0,0,0,0,0,0],"id":40,"left_children":[1,3,5,7,9,11,13,-1,-1,-1,-1,-1,-1,-1,-1],"loss_changes":[3.645452E2,2.5150403E2,4.0964188E1,5.6558533E0,1.5135603E2,4.440153E1,6.536865E-2,0E0,0E0,0E0,0E0,0E0,0E0,0E0,0E0],"parents":[2147483647,0,0,1,1,2,2,3,3,4,4,5,5,6,6],"right_children":[2,4,6,8,10,12,14,-1,-1,-1,-1,-1,-1,-1,-1],"split_conditions":[5.378283E-1,3.8257515E-1,-3.14122E-1,-6.0044104E-1,-3.14122E-1,3.4734523E-1,-2.9564974E-1,3.3575486E-2,2.5346378E-2,3.014317E-2,-4.1487675E-2,2.580055E-2,-4.047535E-2,-1.5981646E-2,-4.0825367E-2],"split_indices":[5,6,8,8,8,6,8,0,0,0,0,0,0,0,0],"split_type":[0,0,0,0,0,0,0,0,0,0,0,0,0,0,0],"sum_hessian":[1.7958412E3,1.2555684E3,5.4027277E2,8.9984485E2,3.5572357E2,9.9556206E1,4.4071655E2,3.8750394E2,5.123409E2,1.031555E2,2.5256808E2,5.314662E1,4.6409584E1,1.9691167E0,4.3874744E2],"tree_param":{"num_deleted":"0","num_feature":"12","num_nodes":"15","size_leaf_vector":"1"}},{"base_weights":[5.6284633E-3,5.161068E-1,-4.9976757E-1,7.7542156E-1,-2.15366E-2,-1.9705783E-1,-2.7234798E-2,2.035961E-2,6.375801E-2,-2.2679355E-2,3.3190213E-3,-2.2544865E-3,-1.9766014E-2],"categories":[],"categories_nodes":[],"categories_segments":[],"categories_sizes":[],"default_left":[0,0,0,0,0,0,0,0,0,0,0,0,0],"id":41,"left_children":[1,3,5,7,9,11,-1,-1,-1,-1,-1,-1,-1],"loss_changes":[1.9888824E2,5.348633E1,5.1612167E0,4.7096542E1,4.80714E0,1.5378311E0,0E0,0E0,0E0,0E0,0E0,0E0,0E0],"parents":[2147483647,0,0,1,1,2,2,3,3,4,4,5,5],"right_children":[2,4,6,8,10,12,-1,-1,-1,-1,-1,-1,-1],"split_conditions":[-5.6200826E-1,-2.852012E-1,-4.5421997E-1,3.649602E-1,-9.4414514E-1,2.4719577E-2,-2.7234798E-2,2.035961E-2,6.375801E-2,-2.2679355E-2,3.3190213E-3,-2.2544865E-3,-1.9766014E-2],"split_indices":[7,9,7,6,0,1,0,0,0,0,0,0,0],"split_type":[0,0,0,0,0,0,0,0,0,0,0,0,0],"sum_hessian":[7.689037E2,3.8251794E2,3.8638574E2,2.5775565E2,1.247623E2,5.0632214E1,3.3575354E2,1.4944948E2,1.0830616E2,2.0391775E1,1.0437053E2,2.9357286E1,2.127493E1],"tree_param":{"num_deleted":"0","num_feature":"12","num_nodes":"13","size_leaf_vector":"1"}},{"base_weights":[1.4900682E-3,-4.6484235E-1,2.0143169E-1,-5.497104E-1,-6.9434926E-2,3.3620623E-1,-2.9092833E-2,-2.8314179E-2,-2.1927584E-2,1.1015317E-2,-2.8584851E-2,-2.9725428E-3,4.5530975E-2],"categories":[],"categories_nodes":[],"categories_segments":[],"categories_sizes":[],"default_left":[0,0,0,0,0,0,0,0,0,0,0,0,0],"id":42,"left_children":[1,3,5,7,9,11,-1,-1,-1,-1,-1,-1,-1],"loss_changes":[1.0745093E2,1.1567009E1,8.534486E1,2.7592468E-1,9.185704E0,1.5660077E2,0E0,0E0,0E0,0E0,0E0,0E0,0E0],"parents":[2147483647,0,0,1,1,2,2,3,3,4,4,5,5],"right_children":[2,4,6,8,10,12,-1,-1,-1,-1,-1,-1,-1],"split_conditions":[-3.14122E-1,5.54572E-1,1.2857913E0,4.2699505E-2,1.2857913E0,-4.6961826E-1,-2.9092833E-2,-2.8314179E-2,-2.1927584E-2,1.1015317E-2,-2.8584851E-2,-2.9725428E-3,4.5530975E-2],"split_indices":[8,5,7,5,7,7,0,0,0,0,0,0,0],"split_type":[0,0,0,0,0,0,0,0,0,0,0,0,0],"sum_hessian":[1.1504172E3,3.4483017E2,8.055871E2,2.8357498E2,6.125521E1,6.8781134E2,1.17775734E2,2.4321808E2,4.0356884E1,3.9202015E1,2.2053198E1,4.078085E2,2.8000284E2],"tree_param":{"num_deleted":"0","num_feature":"12","num_nodes":"13","size_leaf_vector":"1"}},{"base_weights":[-1.0784759E-2,-5.422625E-1,1.1700927E0,-2.759548E-2,-1.47328E-1,8.682976E-1,1.2228895E0,9.930434E-3,-1.6452854E-2,-2.3937536E-2,5.362589E-2,1.4724215E-2,6.1481487E-2],"categories":[],"categories_nodes":[],"categories_segments":[],"categories_sizes":[],"default_left":[0,0,0,0,0,0,0,0,0,0,0,0,0],"id":43,"left_children":[1,3,5,-1,7,9,11,-1,-1,-1,-1,-1,-1],"loss_changes":[5.306788E2,2.1403046E0,3.119934E0,0E0,1.0252051E0,1.2211952E1,1.0203247E0,0E0,0E0,0E0,0E0,0E0,0E0],"parents":[2147483647,0,0,1,1,2,2,4,4,5,5,6,6],"right_children":[2,4,6,-1,8,10,12,-1,-1,-1,-1,-1,-1],"split_conditions":[1.2395964E0,8.5463816E-1,5.617477E-1,-2.759548E-2,-2.1411565E-1,1.3596572E-1,1.2857913E0,9.930434E-3,-1.6452854E-2,-2.3937536E-2,5.362589E-2,1.4724215E-2,6.1481487E-2],"split_indices":[7,7,5,0,9,6,7,0,0,0,0,0,0],"split_type":[0,0,0,0,0,0,0,0,0,0,0,0,0],"sum_hessian":[8.4354395E2,5.8209924E2,2.614447E2,5.678312E2,1.426803E1,4.1525326E1,2.1991936E2,4.881947E0,9.386083E0,5.2897224E0,3.6235603E1,1.9072018E0,2.1801216E2],"tree_param":{"num_deleted":"0","num_feature":"12","num_nodes":"13","size_leaf_vector":"1"}},{"base_weights":[1.7593405E-3,2.909847E-1,-6.681339E-1,5.6723404E-1,-4.064065E-1,-9.808807E-2,-7.969428E-1,3.2973718E-2,2.487376E-2,2.957709E-2,-4.0618308E-2,2.5395438E-2,-3.9640885E-2,-1.5502001E-2,-3.9921705E-2],"categories":[],"categories_nodes":[],"categories_segments":[],"categories_sizes":[],"default_left":[0,0,0,0,0,0,0,0,0,0,0,0,0,0,0],"id":44,"left_children":[1,3,5,7,9,11,13,-1,-1,-1,-1,-1,-1,-1,-1],"loss_changes":[3.4301273E2,2.3845029E2,3.9122055E1,5.373596E0,1.4284914E2,4.2309246E1,6.8573E-2,0E0,0E0,0E0,0E0,0E0,0E0,0E0,0E0],"parents":[2147483647,0,0,1,1,2,2,3,3,4,4,5,5,6,6],"right_children":[2,4,6,8,10,12,14,-1,-1,-1,-1,-1,-1,-1,-1],"split_conditions":[5.378283E-1,3.8257515E-1,-3.14122E-1,-6.0044104E-1,-3.14122E-1,3.4734523E-1,-2.9564974E-1,3.2973718E-2,2.487376E-2,2.957709E-2,-4.0618308E-2,2.5395438E-2,-3.9640885E-2,-1.5502001E-2,-3.9921705E-2],"split_indices":[5,6,8,8,8,6,8,0,0,0,0,0,0,0,0],"split_type":[0,0,0,0,0,0,0,0,0,0,0,0,0,0,0],"sum_hessian":[1.7683838E3,1.235517E3,5.328669E2,8.8509955E2,3.5041742E2,9.853962E1,4.3432727E2,3.7749475E2,5.076048E2,1.01195915E2,2.492215E2,5.277452E1,4.5765102E1,1.9640976E0,4.3236316E2],"tree_param":{"num_deleted":"0","num_feature":"12","num_nodes":"15","size_leaf_vector":"1"}},{"base_weights":[6.7317276E-3,4.955536E-1,-4.9693117E-1,7.408926E-1,-2.1905653E-2,-1.9264454E-1,-2.715165E-2,2.5596717E-2,7.452917E-2,8.289631E-3,-1.1013436E-2,-3.1271947E-4,-1.7709939E-2],"categories":[],"categories_nodes":[],"categories_segments":[],"categories_sizes":[],"default_left":[0,0,0,0,0,0,0,0,0,0,0,0,0],"id":45,"left_children":[1,3,5,7,9,11,-1,-1,-1,-1,-1,-1,-1],"loss_changes":[1.8804675E2,4.922319E1,5.172676E0,4.4374252E1,4.7142167E0,1.5349092E0,0E0,0E0,0E0,0E0,0E0,0E0,0E0],"parents":[2147483647,0,0,1,1,2,2,3,3,4,4,5,5],"right_children":[2,4,6,8,10,12,-1,-1,-1,-1,-1,-1,-1],"split_conditions":[-5.6200826E-1,-2.852012E-1,-4.5421997E-1,5.378283E-1,-7.313899E-1,-2.3345053E-2,-2.715165E-2,2.5596717E-2,7.452917E-2,8.289631E-3,-1.1013436E-2,-3.1271947E-4,-1.7709939E-2],"split_indices":[7,9,7,5,7,0,0,0,0,0,0,0,0],"split_type":[0,0,0,0,0,0,0,0,0,0,0,0,0],"sum_hessian":[7.6179205E2,3.8659988E2,3.7519217E2,2.6196475E2,1.24635124E2,5.004671E1,3.2514545E2,2.0196635E2,5.999839E1,6.412343E1,6.05117E1,2.3719498E1,2.6327211E1],"tree_param":{"num_deleted":"0","num_feature":"12","num_nodes":"13","size_leaf_vector":"1"}},{"base_weights":[1.7589119E-3,-2.1310198E-1,4.122441E-1,-5.2833426E-1,4.0705007E-1,8.215801E-1,-2.8958753E-2,-2.7542436E-2,-1.7202223E-2,-2.578159E-2,3.1759992E-2,1.5447016E-2,5.738015E-2],"categories":[],"categories_nodes":[],"categories_segments":[],"categories_sizes":[],"default_left":[0,0,0,0,0,0,0,0,0,0,0,0,0],"id":46,"left_children":[1,3,5,7,9,11,-1,-1,-1,-1,-1,-1,-1],"loss_changes":[1.0061578E2,1.4660805E2,1.5954419E2,1.8722534E0,5.3572052E1,4.6080826E1,0E0,0E0,0E0,0E0,0E0,0E0,0E0],"parents":[2147483647,0,0,1,1,2,2,3,3,4,4,5,5],"right_children":[2,4,6,8,10,12,-1,-1,-1,-1,-1,-1,-1],"split_conditions":[5.378283E-1,3.8257515E-1,1.2857913E0,2.3870498E-1,-3.14122E-1,-2.852012E-1,-2.8958753E-2,-2.7542436E-2,-1.7202223E-2,-2.578159E-2,3.1759992E-2,1.5447016E-2,5.738015E-2],"split_indices":[5,6,7,7,8,9,0,0,0,0,0,0,0],"split_type":[0,0,0,0,0,0,0,0,0,0,0,0,0],"sum_hessian":[1.1388083E3,7.4784406E2,3.909643E2,4.9591257E2,2.5193152E2,2.768359E2,1.1412838E2,4.4015094E2,5.5761616E1,4.969505E1,2.0223647E2,1.083747E2,1.6846121E2],"tree_param":{"num_deleted":"0","num_feature":"12","num_nodes":"13","size_leaf_vector":"1"}},{"base_weights":[-1.232842E-2,-5.402227E-1,1.104206E0,-2.7507145E-2,-1.447466E-1,8.245601E-1,1.155931E0,2.315971E-2,-1.2169563E-2,5.7571696E-4,5.1835753E-2,1.1575119E-2,5.8190804E-2],"categories":[],"categories_nodes":[],"categories_segments":[],"categories_sizes":[],"default_left":[0,0,0,0,0,0,0,0,0,0,0,0,0],"id":47,"left_children":[1,3,5,-1,7,9,11,-1,-1,-1,-1,-1,-1],"loss_changes":[4.907719E2,2.1382751E0,2.913269E0,0E0,1.0237384E0,7.7867928E0,1.35672E0,0E0,0E0,0E0,0E0,0E0,0E0],"parents":[2147483647,0,0,1,1,2,2,4,4,5,5,6,6],"right_children":[2,4,6,-1,8,10,12,-1,-1,-1,-1,-1,-1],"split_conditions":[1.2395964E0,8.5463816E-1,-2.9564974E-1,-2.7507145E-2,-1.2763926E0,3.4734523E-1,1.2857913E0,2.315971E-2,-1.2169563E-2,5.7571696E-4,5.1835753E-2,1.1575119E-2,5.8190804E-2],"split_indices":[7,7,8,0,0,6,7,0,0,0,0,0,0],"split_type":[0,0,0,0,0,0,0,0,0,0,0,0,0],"sum_hessian":[8.306344E2,5.643347E2,2.662997E2,5.501438E2,1.4190916E1,4.421223E1,2.2208748E2,1.4652276E0,1.2725688E1,9.367445E0,3.4844788E1,2.135092E0,2.1995238E2],"tree_param":{"num_deleted":"0","num_feature":"12","num_nodes":"13","size_leaf_vector":"1"}},{"base_weights":[1.2249533E-3,2.8297845E-1,-6.499299E-1,5.539776E-1,-3.992282E-1,-8.864823E-2,-7.778151E-1,3.2415126E-2,2.4181599E-2,2.8986564E-2,-3.9762333E-2,2.5164703E-2,-3.8767297E-2,-1.5068135E-2,-3.896499E-2],"categories":[],"categories_nodes":[],"categories_segments":[],"categories_sizes":[],"default_left":[0,0,0,0,0,0,0,0,0,0,0,0,0,0,0],"id":48,"left_children":[1,3,5,7,9,11,13,-1,-1,-1,-1,-1,-1,-1,-1],"loss_changes":[3.1916733E2,2.2470908E2,3.7644577E1,5.4555664E0,1.3452159E2,4.0480133E1,6.774902E-2,0E0,0E0,0E0,0E0,0E0,0E0,0E0,0E0],"parents":[2147483647,0,0,1,1,2,2,3,3,4,4,5,5,6,6],"right_children":[2,4,6,8,10,12,14,-1,-1,-1,-1,-1,-1,-1,-1],"split_conditions":[5.378283E-1,3.8257515E-1,-3.14122E-1,-6.0044104E-1,-3.14122E-1,3.4734523E-1,-2.9564974E-1,3.2415126E-2,2.4181599E-2,2.8986564E-2,-3.9762333E-2,2.5164703E-2,-3.8767297E-2,-1.5068135E-2,-3.896499E-2],"split_indices":[5,6,8,8,8,6,8,0,0,0,0,0,0,0,0],"split_type":[0,0,0,0,0,0,0,0,0,0,0,0,0,0,0],"sum_hessian":[1.7376593E3,1.2132526E3,5.2440674E2,8.684559E2,3.447967E2,9.76257E1,4.2678104E2,3.6748615E2,5.0096976E2,9.917406E1,2.4562263E2,5.257363E1,4.5052067E1,1.9594164E0,4.248216E2],"tree_param":{"num_deleted":"0","num_feature":"12","num_nodes":"15","size_leaf_vector":"1"}},{"base_weights":[8.861244E-3,4.7817296E-1,-4.9404657E-1,7.091925E-1,-1.9510271E-2,-1.8726008E-1,-2.7070884E-2,1.8630806E-2,5.802312E-2,-2.2535214E-2,3.327842E-3,-1.7374646E-3,-1.9449027E-2],"categories":[],"categories_nodes":[],"categories_segments":[],"categories_sizes":[],"default_left":[0,0,0,0,0,0,0,0,0,0,0,0,0],"id":49,"left_children":[1,3,5,7,9,11,-1,-1,-1,-1,-1,-1,-1],"loss_changes":[1.7858289E2,4.5013092E1,5.20681E0,4.0171646E1,4.670925E0,1.5365335E0,0E0,0E0,0E0,0E0,0E0,0E0,0E0],"parents":[2147483647,0,0,1,1,2,2,3,3,4,4,5,5],"right_children":[2,4,6,8,10,12,-1,-1,-1,-1,-1,-1,-1],"split_conditions":[-5.6200826E-1,-2.852012E-1,-4.5421997E-1,3.649602E-1,-9.4414514E-1,2.4719577E-2,-2.7070884E-2,1.8630806E-2,5.802312E-2,-2.2535214E-2,3.327842E-3,-1.7374646E-3,-1.9449027E-2],"split_indices":[7,9,7,6,0,1,0,0,0,0,0,0,0],"split_type":[0,0,0,0,0,0,0,0,0,0,0,0,0],"sum_hessian":[7.546404E2,3.9038434E2,3.6425604E2,2.6633112E2,1.2405323E2,4.9384304E1,3.1487173E2,1.5359735E2,1.1273378E2,1.9936287E1,1.0411694E2,2.8789936E1,2.059437E1],"tree_param":{"num_deleted":"0","num_feature":"12","num_nodes":"13","size_leaf_vector":"1"}},{"base_weights":[1.8976403E-3,-4.5404932E-1,1.8644345E-1,-5.418357E-1,-7.198083E-2,3.111517E-1,-2.8813645E-2,-2.7984127E-2,-2.1177275E-2,-2.2401297E-2,1.4694651E-2,-4.729398E-3,3.9534435E-2],"categories":[],"categories_nodes":[],"categories_segments":[],"categories_sizes":[],"default_left":[0,0,0,0,0,0,0,0,0,0,0,0,0],"id":50,"left_children":[1,3,5,7,9,11,-1,-1,-1,-1,-1,-1,-1],"loss_changes":[9.491169E1,1.086187E1,7.655509E1,3.2055664E-1,8.644969E0,1.3447717E2,0E0,0E0,0E0,0E0,0E0,0E0,0E0],"parents":[2147483647,0,0,1,1,2,2,3,3,4,4,5,5],"right_children":[2,4,6,8,10,12,-1,-1,-1,-1,-1,-1,-1],"split_conditions":[-3.14122E-1,5.54572E-1,1.2857913E0,4.2699505E-2,4.3542004E-1,-5.158133E-1,-2.8813645E-2,-2.7984127E-2,-2.1177275E-2,-2.2401297E-2,1.4694651E-2,-4.729398E-3,3.9534435E-2],"split_indices":[8,5,7,5,6,7,0,0,0,0,0,0,0],"split_type":[0,0,0,0,0,0,0,0,0,0,0,0,0],"sum_hessian":[1.1259734E3,3.2400705E2,8.019664E2,2.6313043E2,6.0876614E1,6.897763E2,1.1219011E2,2.2539319E2,3.773725E1,2.9910286E1,3.0966328E1,3.740731E2,3.157032E2],"tree_param":{"num_deleted":"0","num_feature":"12","num_nodes":"13","size_leaf_vector":"1"}},{"base_weights":[-1.3408869E-2,-5.381235E-1,1.0477841E0,-2.7416755E-2,-1.4109059E-1,8.1893986E-1,1.1047798E0,9.875023E-3,-1.6136212E-2,-1.1685875E-2,4.7909953E-2,1.2811747E-2,5.55827E-2],"categories":[],"categories_nodes":[],"categories_segments":[],"categories_sizes":[],"default_left":[0,0,0,0,0,0,0,0,0,0,0,0,0],"id":51,"left_children":[1,3,5,-1,7,9,11,-1,-1,-1,-1,-1,-1],"loss_changes":[4.5587323E2,2.1436462E0,2.628418E0,0E0,9.9131334E-1,8.708412E0,9.634094E-1,0E0,0E0,0E0,0E0,0E0,0E0],"parents":[2147483647,0,0,1,1,2,2,4,4,5,5,6,6],"right_children":[2,4,6,-1,8,10,12,-1,-1,-1,-1,-1,-1],"split_conditions":[1.2395964E0,8.5463816E-1,3.4734523E-1,-2.7416755E-2,-2.1411565E-1,5.378283E-1,1.2857913E0,9.875023E-3,-1.6136212E-2,-1.1685875E-2,4.7909953E-2,1.2811747E-2,5.55827E-2],"split_indices":[7,7,6,0,9,5,7,0,0,0,0,0,0],"split_type":[0,0,0,0,0,0,0,0,0,0,0,0,0],"sum_hessian":[8.166908E2,5.468097E2,2.6988113E2,5.3272705E2,1.4082641E1,5.687803E1,2.130031E2,4.886378E0,9.196263E0,6.566171E0,5.031186E1,2.0192358E0,2.1098387E2],"tree_param":{"num_deleted":"0","num_feature":"12","num_nodes":"13","size_leaf_vector":"1"}},{"base_weights":[1.2093362E-3,2.7742213E-1,-6.3672584E-1,5.4372126E-1,-3.9275157E-1,-8.53328E-2,-7.6267564E-1,3.1883787E-2,2.3745721E-2,2.8480297E-2,-3.9017286E-2,2.4567723E-2,-3.7966374E-2,-1.4638904E-2,-3.8208414E-2],"categories":[],"categories_nodes":[],"categories_segments":[],"categories_sizes":[],"default_left":[0,0,0,0,0,0,0,0,0,0,0,0,0,0,0],"id":52,"left_children":[1,3,5,7,9,11,13,-1,-1,-1,-1,-1,-1,-1,-1],"loss_changes":[3.013287E2,2.1319229E2,3.5819397E1,5.2209015E0,1.272417E2,3.8155857E1,7.121277E-2,0E0,0E0,0E0,0E0,0E0,0E0,0E0,0E0],"parents":[2147483647,0,0,1,1,2,2,3,3,4,4,5,5,6,6],"right_children":[2,4,6,8,10,12,14,-1,-1,-1,-1,-1,-1,-1,-1],"split_conditions":[5.378283E-1,3.8257515E-1,-3.14122E-1,-6.0044104E-1,-3.14122E-1,3.4734523E-1,-2.9564974E-1,3.1883787E-2,2.3745721E-2,2.8480297E-2,-3.9017286E-2,2.4567723E-2,-3.7966374E-2,-1.4638904E-2,-3.8208414E-2],"split_indices":[5,6,8,8,8,6,8,0,0,0,0,0,0,0,0],"split_type":[0,0,0,0,0,0,0,0,0,0,0,0,0,0,0],"sum_hessian":[1.7080923E3,1.192381E3,5.157113E2,8.5344586E2,3.3893518E2,9.620684E1,4.1950443E2,3.5729645E2,4.961494E2,9.717924E1,2.4175594E2,5.199207E1,4.4214775E1,1.9525794E0,4.1755185E2],"tree_param":{"num_deleted":"0","num_feature":"12","num_nodes":"15","size_leaf_vector":"1"}},{"base_weights":[1.0049575E-2,4.600427E-1,-4.9112618E-1,6.799514E-1,-2.0028895E-2,-1.8155652E-1,-2.6991857E-2,2.3538021E-2,6.714897E-2,-2.2406673E-2,3.1906234E-3,3.2556622E-4,-1.7321808E-2],"categories":[],"categories_nodes":[],"categories_segments":[],"categories_sizes":[],"default_left":[0,0,0,0,0,0,0,0,0,0,0,0,0],"id":53,"left_children":[1,3,5,7,9,11,-1,-1,-1,-1,-1,-1,-1],"loss_changes":[1.6889911E2,4.1671722E1,5.2448807E0,3.6907585E1,4.513012E0,1.542723E0,0E0,0E0,0E0,0E0,0E0,0E0,0E0],"parents":[2147483647,0,0,1,1,2,2,3,3,4,4,5,5],"right_children":[2,4,6,8,10,12,-1,-1,-1,-1,-1,-1,-1],"split_conditions":[-5.6200826E-1,-2.852012E-1,-4.5421997E-1,5.378283E-1,-9.4414514E-1,-2.3345053E-2,-2.6991857E-2,2.3538021E-2,6.714897E-2,-2.2406673E-2,3.1906234E-3,3.2556622E-4,-1.7321808E-2],"split_indices":[7,9,7,5,0,0,0,0,0,0,0,0,0],"split_type":[0,0,0,0,0,0,0,0,0,0,0,0,0],"sum_hessian":[7.4691125E2,3.935946E2,3.5331662E2,2.6965573E2,1.2393888E2,4.867878E1,3.0463785E2,2.0628201E2,6.337372E1,1.9585884E1,1.04353004E2,2.3189024E1,2.5489756E1],"tree_param":{"num_deleted":"0","num_feature":"12","num_nodes":"13","size_leaf_vector":"1"}},{"base_weights":[2.1109183E-3,-4.4825068E-1,1.790139E-1,-5.380247E-1,-6.877045E-2,-1.813032E-1,4.3608627E-1,-2.7827889E-2,-2.0806458E-2,9.950037E-3,-2.8186081E-2,-2.9611131E-2,2.0209616E-2,3.2616895E-2,-2.8555173E-2],"categories":[],"categories_nodes":[],"categories_segments":[],"categories_sizes":[],"default_left":[0,0,0,0,0,0,0,0,0,0,0,0,0,0,0],"id":54,"left_children":[1,3,5,7,9,11,13,-1,-1,-1,-1,-1,-1,-1,-1],"loss_changes":[8.884551E1,1.0677334E1,7.4241714E1,3.426361E-1,8.2384615E0,8.0618004E1,1.0221157E2,0E0,0E0,0E0,0E0,0E0,0E0,0E0,0E0],"parents":[2147483647,0,0,1,1,2,2,3,3,4,4,5,5,6,6],"right_children":[2,4,6,8,10,12,14,-1,-1,-1,-1,-1,-1,-1,-1],"split_conditions":[-3.14122E-1,5.54572E-1,-3.110503E-1,4.2699505E-2,1.2857913E0,-5.774066E-1,1.2857913E0,-2.7827889E-2,-2.0806458E-2,9.950037E-3,-2.8186081E-2,-2.9611131E-2,2.0209616E-2,3.2616895E-2,-2.8555173E-2],"split_indices":[8,5,9,5,7,7,7,0,0,0,0,0,0,0,0],"split_type":[0,0,0,0,0,0,0,0,0,0,0,0,0,0,0],"sum_hessian":[1.1131575E3,3.1350333E2,7.996542E2,2.5318848E2,6.0314842E1,3.330876E2,4.6656662E2,2.1667862E2,3.6509857E1,3.952795E1,2.0786892E1,1.957162E2,1.3737137E2,3.8438782E2,8.21788E1],"tree_param":{"num_deleted":"0","num_feature":"12","num_nodes":"15","size_leaf_vector":"1"}},{"base_weights":[-1.48573695E-2,-5.361941E-1,9.976089E-1,-2.7335197E-2,-1.3825603E-1,7.4482095E-1,1.0446124E0,2.2858938E-2,-1.18551245E-2,1.9597905E-3,4.7206935E-2,1.1159527E-2,5.2574236E-2],"categories":[],"categories_nodes":[],"categories_segments":[],"categories_sizes":[],"default_left":[0,0,0,0,0,0,0,0,0,0,0,0,0],"id":55,"left_children":[1,3,5,-1,7,9,11,-1,-1,-1,-1,-1,-1],"loss_changes":[4.2454663E2,2.1448364E0,2.470337E0,0E0,9.912181E-1,6.4816284E0,1.0526581E0,0E0,0E0,0E0,0E0,0E0,0E0],"parents":[2147483647,0,0,1,1,2,2,4,4,5,5,6,6],"right_children":[2,4,6,-1,8,10,12,-1,-1,-1,-1,-1,-1],"split_conditions":[1.2395964E0,8.5463816E-1,-2.9564974E-1,-2.7335197E-2,-1.2763926E0,3.8257515E-1,1.2857913E0,2.2858938E-2,-1.18551245E-2,1.9597905E-3,4.7206935E-2,1.1159527E-2,5.2574236E-2],"split_indices":[7,7,8,0,0,6,7,0,0,0,0,0,0],"split_type":[0,0,0,0,0,0,0,0,0,0,0,0,0],"sum_hessian":[8.023023E2,5.299118E2,2.723905E2,5.159123E2,1.3999502E1,4.534863E1,2.2704187E2,1.477022E0,1.252248E1,1.0251806E1,3.5096825E1,2.161528E0,2.2488034E2],"tree_param":{"num_deleted":"0","num_feature":"12","num_nodes":"13","size_leaf_vector":"1"}},{"base_weights":[1.3536309E-3,2.7161554E-1,-6.2313056E-1,5.34064E-1,-3.8820177E-1,-8.085243E-2,-7.4785566E-1,3.1384986E-2,2.3340605E-2,2.793637E-2,-3.8344897E-2,2.4177298E-2,-3.732605E-2,-1.4388758E-2,-3.7466906E-2],"categories":[],"categories_nodes":[],"categories_segments":[],"categories_sizes":[],"default_left":[0,0,0,0,0,0,0,0,0,0,0,0,0,0,0],"id":56,"left_children":[1,3,5,7,9,11,13,-1,-1,-1,-1,-1,-1,-1,-1],"loss_changes":[2.8368796E2,2.033601E2,3.427919E1,4.994919E0,1.203519E2,3.6451134E1,6.581116E-2,0E0,0E0,0E0,0E0,0E0,0E0,0E0,0E0],"parents":[2147483647,0,0,1,1,2,2,3,3,4,4,5,5,6,6],"right_children":[2,4,6,8,10,12,14,-1,-1,-1,-1,-1,-1,-1,-1],"split_conditions":[5.378283E-1,3.8257515E-1,-3.14122E-1,-6.0044104E-1,-3.14122E-1,3.4734523E-1,-2.9564974E-1,3.1384986E-2,2.3340605E-2,2.793637E-2,-3.8344897E-2,2.4177298E-2,-3.732605E-2,-1.4388758E-2,-3.7466906E-2],"split_indices":[5,6,8,8,8,6,8,0,0,0,0,0,0,0,0],"split_type":[0,0,0,0,0,0,0,0,0,0,0,0,0,0,0],"sum_hessian":[1.678869E3,1.1721538E3,5.0671518E2,8.387312E2,3.3342258E2,9.506054E1,4.1165466E2,3.471109E2,4.9162033E2,9.511422E1,2.3830836E2,5.1591446E1,4.346909E1,1.9487755E0,4.0970587E2],"tree_param":{"num_deleted":"0","num_feature":"12","num_nodes":"15","size_leaf_vector":"1"}},{"base_weights":[1.0900051E-2,4.4214845E-1,-4.882313E-1,6.478152E-1,-1.6617494E-2,-1.7526008E-1,-2.6917567E-2,1.7029215E-2,5.2835383E-2,6.8918243E-3,-1.2935312E-2,-1.0799839E-3,-1.9075328E-2],"categories":[],"categories_nodes":[],"categories_segments":[],"categories_sizes":[],"default_left":[0,0,0,0,0,0,0,0,0,0,0,0,0],"id":57,"left_children":[1,3,5,7,9,11,-1,-1,-1,-1,-1,-1,-1],"loss_changes":[1.5963045E2,3.754857E1,5.2978973E0,3.4151886E1,4.6768055E0,1.5425768E0,0E0,0E0,0E0,0E0,0E0,0E0,0E0],"parents":[2147483647,0,0,1,1,2,2,3,3,4,4,5,5],"right_children":[2,4,6,8,10,12,-1,-1,-1,-1,-1,-1,-1],"split_conditions":[-5.6200826E-1,-2.852012E-1,-4.5421997E-1,3.649602E-1,1.4316046E-1,2.4719577E-2,-2.6917567E-2,1.7029215E-2,5.2835383E-2,6.8918243E-3,-1.2935312E-2,-1.0799839E-3,-1.9075328E-2],"split_indices":[7,9,7,6,5,1,0,0,0,0,0,0,0],"split_type":[0,0,0,0,0,0,0,0,0,0,0,0,0],"sum_hessian":[7.396034E2,3.9684467E2,3.4275876E2,2.7372186E2,1.231228E2,4.793415E1,2.9482462E2,1.573364E2,1.1638547E2,7.54292E1,4.769361E1,2.810198E1,1.983217E1],"tree_param":{"num_deleted":"0","num_feature":"12","num_nodes":"13","size_leaf_vector":"1"}},{"base_weights":[2.201964E-3,-2.023027E-1,3.7539652E-1,-5.1808447E-1,3.7265405E-1,7.295957E-1,-2.8544525E-2,-2.7102923E-2,-1.6234716E-2,-2.5065914E-2,2.8067647E-2,1.3575126E-2,5.0632883E-2],"categories":[],"categories_nodes":[],"categories_segments":[],"categories_sizes":[],"default_left":[0,0,0,0,0,0,0,0,0,0,0,0,0],"id":58,"left_children":[1,3,5,7,9,11,-1,-1,-1,-1,-1,-1,-1],"loss_changes":[8.414638E1,1.2951047E2,1.312342E2,1.9574738E0,4.2020004E1,3.66075E1,0E0,0E0,0E0,0E0,0E0,0E0,0E0],"parents":[2147483647,0,0,1,1,2,2,3,3,4,4,5,5],"right_children":[2,4,6,8,10,12,-1,-1,-1,-1,-1,-1,-1],"split_conditions":[5.378283E-1,3.8257515E-1,1.2857913E0,2.3870498E-1,-3.14122E-1,-2.852012E-1,-2.8544525E-2,-2.7102923E-2,-1.6234716E-2,-2.5065914E-2,2.8067647E-2,1.3575126E-2,5.0632883E-2],"split_indices":[5,6,7,7,8,9,0,0,0,0,0,0,0],"split_type":[0,0,0,0,0,0,0,0,0,0,0,0,0],"sum_hessian":[1.1005515E3,7.1125366E2,3.892978E2,4.5916614E2,2.5208754E2,2.8343564E2,1.0586215E2,4.0691873E2,5.2247417E1,4.446908E1,2.0761845E2,1.0899798E2,1.7443764E2],"tree_param":{"num_deleted":"0","num_feature":"12","num_nodes":"13","size_leaf_vector":"1"}},{"base_weights":[-1.6198676E-2,-5.343018E-1,9.5342875E-1,-2.7255703E-2,-1.3610512E-1,7.004937E-1,9.981174E-1,9.825677E-3,-1.5908372E-2,-2.3907306E-2,4.3476027E-2,1.3233027E-2,5.016629E-2],"categories":[],"categories_nodes":[],"categories_segments":[],"categories_sizes":[],"default_left":[0,0,0,0,0,0,0,0,0,0,0,0,0],"id":59,"left_children":[1,3,5,-1,7,9,11,-1,-1,-1,-1,-1,-1],"loss_changes":[3.96609E2,2.1410522E0,2.4085999E0,0E0,9.669045E-1,9.308353E0,6.180725E-1,0E0,0E0,0E0,0E0,0E0,0E0],"parents":[2147483647,0,0,1,1,2,2,4,4,5,5,6,6],"right_children":[2,4,6,-1,8,10,12,-1,-1,-1,-1,-1,-1],"split_conditions":[1.2395964E0,8.5463816E-1,5.617477E-1,-2.7255703E-2,-3.271142E-1,1.3596572E-1,1.2857913E0,9.825677E-3,-1.5908372E-2,-2.3907306E-2,4.3476027E-2,1.3233027E-2,5.016629E-2],"split_indices":[7,7,5,0,0,6,7,0,0,0,0,0,0],"split_type":[0,0,0,0,0,0,0,0,0,0,0,0,0],"sum_hessian":[7.8746655E2,5.1352344E2,2.739431E2,4.995891E2,1.3934286E1,4.36367E1,2.3030641E2,4.9010105E0,9.033276E0,5.2436204E0,3.839308E1,1.9892805E0,2.2831714E2],"tree_param":{"num_deleted":"0","num_feature":"12","num_nodes":"13","size_leaf_vector":"1"}},{"base_weights":[7.283205E-4,2.6494473E-1,-6.08856E-1,5.218887E-1,-3.8063183E-1,-7.1797855E-2,-7.335758E-1,3.0918945E-2,2.268176E-2,2.7478099E-2,-3.760755E-2,2.3971664E-2,-3.6611598E-2,-1.3833299E-2,-3.6754705E-2],"categories":[],"categories_nodes":[],"categories_segments":[],"categories_sizes":[],"default_left":[0,0,0,0,0,0,0,0,0,0,0,0,0,0,0],"id":60,"left_children":[1,3,5,7,9,11,13,-1,-1,-1,-1,-1,-1,-1,-1],"loss_changes":[2.6537698E2,1.9086607E2,3.331871E1,5.137146E0,1.1370375E2,3.4937103E1,7.702637E-2,0E0,0E0,0E0,0E0,0E0,0E0,0E0,0E0],"parents":[2147483647,0,0,1,1,2,2,3,3,4,4,5,5,6,6],"right_children":[2,4,6,8,10,12,14,-1,-1,-1,-1,-1,-1,-1,-1],"split_conditions":[5.378283E-1,3.8257515E-1,-3.14122E-1,-6.0044104E-1,-3.14122E-1,3.4734523E-1,-2.9564974E-1,3.0918945E-2,2.268176E-2,2.7478099E-2,-3.760755E-2,2.3971664E-2,-3.6611598E-2,-1.3833299E-2,-3.6754705E-2],"split_indices":[5,6,8,8,8,6,8,0,0,0,0,0,0,0,0],"split_type":[0,0,0,0,0,0,0,0,0,0,0,0,0,0,0],"sum_hessian":[1.6456664E3,1.1484507E3,4.9721567E2,8.216285E2,3.2682227E2,9.400308E1,4.032126E2,3.370624E2,4.8456607E2,9.314088E1,2.3368138E2,5.1387E1,4.261608E1,1.9421564E0,4.0127042E2],"tree_param":{"num_deleted":"0","num_feature":"12","num_nodes":"15","size_leaf_vector":"1"}},{"base_weights":[1.327893E-2,4.291956E-1,-4.8529103E-1,6.2533766E-1,-1.3975595E-2,-1.6983728E-1,-2.6842808E-2,2.164051E-2,6.1022997E-2,6.8888143E-3,-1.2710306E-2,9.926946E-4,-1.6909156E-2],"categories":[],"categories_nodes":[],"categories_segments":[],"categories_sizes":[],"default_left":[0,0,0,0,0,0,0,0,0,0,0,0,0],"id":61,"left_children":[1,3,5,7,9,11,-1,-1,-1,-1,-1,-1,-1],"loss_changes":[1.5200478E2,3.4746155E1,5.3321E0,3.1214622E1,4.5403414E0,1.5492728E0,0E0,0E0,0E0,0E0,0E0,0E0,0E0],"parents":[2147483647,0,0,1,1,2,2,3,3,4,4,5,5],"right_children":[2,4,6,8,10,12,-1,-1,-1,-1,-1,-1,-1],"split_conditions":[-5.6200826E-1,-2.852012E-1,-4.5421997E-1,5.378283E-1,1.4316046E-1,-2.3345053E-2,-2.6842808E-2,2.164051E-2,6.1022997E-2,6.8888143E-3,-1.2710306E-2,9.926946E-4,-1.6909156E-2],"split_indices":[7,9,7,5,5,0,0,0,0,0,0,0,0],"split_type":[0,0,0,0,0,0,0,0,0,0,0,0,0],"sum_hessian":[7.3103064E2,3.9862726E2,3.324034E2,2.76043E2,1.2258426E2,4.730501E1,2.850984E2,2.0987408E2,6.616893E1,7.538842E1,4.719584E1,2.2657135E1,2.4647875E1],"tree_param":{"num_deleted":"0","num_feature":"12","num_nodes":"13","size_leaf_vector":"1"}},{"base_weights":[2.3031416E-3,-4.3799195E-1,1.6630065E-1,-5.3088343E-1,-7.037266E-2,-1.7982568E-1,4.0806946E-1,-2.7544364E-2,-2.0052932E-2,-2.1991119E-2,1.3911388E-2,-2.9448846E-2,1.9068724E-2,3.0209765E-2,-2.827838E-2],"categories":[],"categories_nodes":[],"categories_segments":[],"categories_sizes":[],"default_left":[0,0,0,0,0,0,0,0,0,0,0,0,0,0,0],"id":62,"left_children":[1,3,5,7,9,11,13,-1,-1,-1,-1,-1,-1,-1,-1],"loss_changes":[7.855437E1,1.0044846E1,6.6404175E1,3.907547E-1,7.9409385E0,7.5232376E1,8.951431E1,0E0,0E0,0E0,0E0,0E0,0E0,0E0,0E0],"parents":[2147483647,0,0,1,1,2,2,3,3,4,4,5,5,6,6],"right_children":[2,4,6,8,10,12,14,-1,-1,-1,-1,-1,-1,-1,-1],"split_conditions":[-3.14122E-1,5.54572E-1,-3.110503E-1,4.2699505E-2,4.3542004E-1,-5.774066E-1,1.2857913E0,-2.7544364E-2,-2.0052932E-2,-2.1991119E-2,1.3911388E-2,-2.9448846E-2,1.9068724E-2,3.0209765E-2,-2.827838E-2],"split_indices":[8,5,9,5,6,7,7,0,0,0,0,0,0,0,0],"split_type":[0,0,0,0,0,0,0,0,0,0,0,0,0,0,0],"sum_hessian":[1.085892E3,2.942442E2,7.9164777E2,2.3453647E2,5.9707726E1,3.2566638E2,4.6598138E2,2.0041286E2,3.412362E1,2.8859983E1,3.084774E1,1.8831966E2,1.3734673E2,3.8816943E2,7.781196E1],"tree_param":{"num_deleted":"0","num_feature":"12","num_nodes":"15","size_leaf_vector":"1"}},{"base_weights":[-1.7370513E-2,-5.32348E-1,9.137104E-1,-2.717467E-2,-1.3219321E-1,6.749175E-1,9.586822E-1,9.909149E-3,-1.5708005E-2,1.4933657E-3,4.2778175E-2,1.0658782E-2,4.824687E-2],"categories":[],"categories_nodes":[],"categories_segments":[],"categories_sizes":[],"default_left":[0,0,0,0,0,0,0,0,0,0,0,0,0],"id":63,"left_children":[1,3,5,-1,7,9,11,-1,-1,-1,-1,-1,-1],"loss_changes":[3.7101062E2,2.1500092E0,2.3122253E0,0E0,9.5328176E-1,5.4570637E0,8.645935E-1,0E0,0E0,0E0,0E0,0E0,0E0],"parents":[2147483647,0,0,1,1,2,2,4,4,5,5,6,6],"right_children":[2,4,6,-1,8,10,12,-1,-1,-1,-1,-1,-1],"split_conditions":[1.2395964E0,8.5463816E-1,-2.9564974E-1,-2.717467E-2,-2.1411565E-1,3.8257515E-1,1.2857913E0,9.909149E-3,-1.5708005E-2,1.4933657E-3,4.2778175E-2,1.0658782E-2,4.824687E-2],"split_indices":[7,7,8,0,9,6,7,0,0,0,0,0,0],"split_type":[0,0,0,0,0,0,0,0,0,0,0,0,0],"sum_hessian":[7.7175336E2,4.9718845E2,2.7456488E2,4.8336716E2,1.3821309E1,4.6050705E1,2.2851419E2,4.8772097E0,8.944099E0,1.0329931E1,3.572077E1,2.1933048E0,2.2632088E2],"tree_param":{"num_deleted":"0","num_feature":"12","num_nodes":"13","size_leaf_vector":"1"}},{"base_weights":[8.2971074E-4,2.5969622E-1,-5.977381E-1,5.1297486E-1,-3.7664965E-1,-6.981888E-2,-7.209183E-1,3.0474974E-2,2.2305045E-2,2.6978875E-2,-3.701996E-2,2.340208E-2,-3.5995636E-2,-1.3583436E-2,-3.612194E-2],"categories":[],"categories_nodes":[],"categories_segments":[],"categories_sizes":[],"default_left":[0,0,0,0,0,0,0,0,0,0,0,0,0,0,0],"id":64,"left_children":[1,3,5,7,9,11,13,-1,-1,-1,-1,-1,-1,-1,-1],"loss_changes":[2.5061244E2,1.8217035E2,3.1703552E1,4.944046E0,1.0772448E2,3.302601E1,7.409668E-2,0E0,0E0,0E0,0E0,0E0,0E0,0E0,0E0],"parents":[2147483647,0,0,1,1,2,2,3,3,4,4,5,5,6,6],"right_children":[2,4,6,8,10,12,14,-1,-1,-1,-1,-1,-1,-1,-1],"split_conditions":[5.378283E-1,3.8257515E-1,-3.14122E-1,-6.0044104E-1,-3.14122E-1,3.4734523E-1,-2.9564974E-1,3.0474974E-2,2.2305045E-2,2.6978875E-2,-3.701996E-2,2.340208E-2,-3.5995636E-2,-1.3583436E-2,-3.612194E-2],"split_indices":[5,6,8,8,8,6,8,0,0,0,0,0,0,0,0],"split_type":[0,0,0,0,0,0,0,0,0,0,0,0,0,0,0],"sum_hessian":[1.6153832E3,1.1280808E3,4.8730234E2,8.0705164E2,3.2102914E2,9.248818E1,3.9481415E2,3.2698044E2,4.8007123E2,9.109414E1,2.2993501E2,5.07663E1,4.1721878E1,1.9377773E0,3.9287637E2],"tree_param":{"num_deleted":"0","num_feature":"12","num_nodes":"15","size_leaf_vector":"1"}},{"base_weights":[1.4151458E-2,4.1330597E-1,-4.8234153E-1,5.975976E-1,-1.0461634E-2,-1.635742E-1,-2.6772067E-2,1.5623564E-2,4.8871458E-2,8.709765E-3,-1.04665775E-2,-4.627179E-4,-1.8698033E-2],"categories":[],"categories_nodes":[],"categories_segments":[],"categories_sizes":[],"default_left":[0,0,0,0,0,0,0,0,0,0,0,0,0],"id":65,"left_children":[1,3,5,7,9,11,-1,-1,-1,-1,-1,-1,-1],"loss_changes":[1.4373952E2,3.1404892E1,5.3839645E0,3.0041466E1,4.5473366E0,1.5418961E0,0E0,0E0,0E0,0E0,0E0,0E0,0E0],"parents":[2147483647,0,0,1,1,2,2,3,3,4,4,5,5],"right_children":[2,4,6,8,10,12,-1,-1,-1,-1,-1,-1,-1],"split_conditions":[-5.6200826E-1,-2.852012E-1,-4.5421997E-1,3.649602E-1,-7.313899E-1,2.4719577E-2,-2.6772067E-2,1.5623564E-2,4.8871458E-2,8.709765E-3,-1.04665775E-2,-4.627179E-4,-1.8698033E-2],"split_indices":[7,9,7,6,7,1,0,0,0,0,0,0,0],"split_type":[0,0,0,0,0,0,0,0,0,0,0,0,0],"sum_hessian":[7.233013E2,4.0104752E2,3.2225375E2,2.7921146E2,1.2183606E2,4.6598064E1,2.756557E2,1.605299E2,1.18681564E2,6.3239906E1,5.8596153E1,2.7483051E1,1.9115011E1],"tree_param":{"num_deleted":"0","num_feature":"12","num_nodes":"13","size_leaf_vector":"1"}},{"base_weights":[2.286032E-3,-2.1812357E-1,3.1673625E-1,-5.1047754E-1,4.2861474E-1,5.6047064E-1,-2.8486645E-2,-2.6783908E-2,-1.549185E-2,2.8535008E-2,-2.6143713E-2,4.0257387E-3,4.2876344E-2],"categories":[],"categories_nodes":[],"categories_segments":[],"categories_sizes":[],"default_left":[0,0,0,0,0,0,0,0,0,0,0,0,0],"id":66,"left_children":[1,3,5,7,9,11,-1,-1,-1,-1,-1,-1,-1],"loss_changes":[7.446353E1,1.1964922E2,9.5979095E1,2.0358505E0,2.6956577E1,4.951316E1,0E0,0E0,0E0,0E0,0E0,0E0,0E0],"parents":[2147483647,0,0,1,1,2,2,3,3,4,4,5,5],"right_children":[2,4,6,8,10,12,-1,-1,-1,-1,-1,-1,-1],"split_conditions":[3.8257515E-1,5.378283E-1,1.2857913E0,2.3870498E-1,1.2395964E0,-2.9812562E-1,-2.8486645E-2,-2.6783908E-2,-1.549185E-2,2.8535008E-2,-2.6143713E-2,4.0257387E-3,4.2876344E-2],"split_indices":[6,5,7,7,7,9,0,0,0,0,0,0,0],"split_type":[0,0,0,0,0,0,0,0,0,0,0,0,0],"sum_hessian":[1.0723915E3,6.306513E2,4.417401E2,4.344649E2,1.9618642E2,3.4676495E2,9.497517E1,3.8450137E2,4.9963516E1,1.710446E2,2.5141811E1,1.330562E2,2.1370877E2],"tree_param":{"num_deleted":"0","num_feature":"12","num_nodes":"13","size_leaf_vector":"1"}},{"base_weights":[-1.8551117E-2,-5.305451E-1,8.788581E-1,-2.710085E-2,-1.3009128E-1,2.9047635E-1,8.9395773E-1,2.2330444E-2,-1.1446246E-2,-2.3048643E-2,3.5841227E-2,3.5444744E-2,4.6973057E-2],"categories":[],"categories_nodes":[],"categories_segments":[],"categories_sizes":[],"default_left":[0,0,0,0,0,0,0,0,0,0,0,0,0],"id":67,"left_children":[1,3,5,-1,7,9,11,-1,-1,-1,-1,-1,-1],"loss_changes":[3.483238E2,2.1469421E0,2.1871338E0,0E0,9.4342166E-1,3.0127037E0,1.591095E0,0E0,0E0,0E0,0E0,0E0,0E0],"parents":[2147483647,0,0,1,1,2,2,4,4,5,5,6,6],"right_children":[2,4,6,-1,8,10,12,-1,-1,-1,-1,-1,-1],"split_conditions":[1.2395964E0,8.5463816E-1,-5.5369467E-2,-2.710085E-2,-1.2763926E0,9.226645E-2,3.4734523E-1,2.2330444E-2,-1.1446246E-2,-2.3048643E-2,3.5841227E-2,3.5444744E-2,4.6973057E-2],"split_indices":[7,7,5,0,0,8,6,0,0,0,0,0,0],"split_type":[0,0,0,0,0,0,0,0,0,0,0,0,0],"sum_hessian":[7.560875E2,4.8168387E2,2.7440366E2,4.679256E2,1.3758255E1,7.372168E0,2.6703146E2,1.4980792E0,1.2260176E1,2.6392365E0,4.7329316E0,5.5971886E1,2.1105959E2],"tree_param":{"num_deleted":"0","num_feature":"12","num_nodes":"13","size_leaf_vector":"1"}},{"base_weights":[4.5864732E-4,2.5402015E-1,-5.8566815E-1,5.0151044E-1,-3.6590004E-1,-6.2148266E-2,-7.0899194E-1,3.0055081E-2,2.1681568E-2,2.6759287E-2,-3.636347E-2,2.3165395E-2,-3.5390284E-2,-1.3115691E-2,-3.5527397E-2],"categories":[],"categories_nodes":[],"categories_segments":[],"categories_sizes":[],"default_left":[0,0,0,0,0,0,0,0,0,0,0,0,0,0,0],"id":68,"left_children":[1,3,5,7,9,11,13,-1,-1,-1,-1,-1,-1,-1,-1],"loss_changes":[2.3553267E2,1.6990746E2,3.0853317E1,5.0868073E0,1.0335549E2,3.1654573E1,8.274841E-2,0E0,0E0,0E0,0E0,0E0,0E0,0E0,0E0],"parents":[2147483647,0,0,1,1,2,2,3,3,4,4,5,5,6,6],"right_children":[2,4,6,8,10,12,14,-1,-1,-1,-1,-1,-1,-1,-1],"split_conditions":[5.378283E-1,3.8257515E-1,-3.14122E-1,-6.0044104E-1,-3.14122E-1,3.4734523E-1,-2.9564974E-1,3.0055081E-2,2.1681568E-2,2.6759287E-2,-3.636347E-2,2.3165395E-2,-3.5390284E-2,-1.3115691E-2,-3.5527397E-2],"split_indices":[5,6,8,8,8,6,8,0,0,0,0,0,0,0,0],"split_type":[0,0,0,0,0,0,0,0,0,0,0,0,0,0,0],"sum_hessian":[1.5828054E3,1.1052396E3,4.775658E2,7.9002826E2,3.1521136E2,9.133688E1,3.862289E2,3.1703024E2,4.7299802E2,9.008947E1,2.2512189E2,5.0511482E1,4.0825397E1,1.9294629E0,3.8429947E2],"tree_param":{"num_deleted":"0","num_feature":"12","num_nodes":"15","size_leaf_vector":"1"}},{"base_weights":[1.6311219E-2,4.0188494E-1,-4.7939482E-1,5.778636E-1,-7.385746E-3,-1.5819746E-1,-2.6702529E-2,1.9251972E-2,5.432233E-2,7.3240786E-3,-1.2533422E-2,1.6494939E-3,-1.6498594E-2],"categories":[],"categories_nodes":[],"categories_segments":[],"categories_sizes":[],"default_left":[0,0,0,0,0,0,0,0,0,0,0,0,0],"id":69,"left_children":[1,3,5,7,9,11,-1,-1,-1,-1,-1,-1,-1],"loss_changes":[1.3691676E2,2.902317E1,5.417862E0,2.7214355E1,4.608783E0,1.5543876E0,0E0,0E0,0E0,0E0,0E0,0E0,0E0],"parents":[2147483647,0,0,1,1,2,2,3,3,4,4,5,5],"right_children":[2,4,6,8,10,12,-1,-1,-1,-1,-1,-1,-1],"split_conditions":[-5.6200826E-1,-2.852012E-1,-4.5421997E-1,4.3019167E-1,1.4316046E-1,-2.3345053E-2,-2.6702529E-2,1.9251972E-2,5.432233E-2,7.3240786E-3,-1.2533422E-2,1.6494939E-3,-1.6498594E-2],"split_indices":[7,9,7,5,5,0,0,0,0,0,0,0,0],"split_type":[0,0,0,0,0,0,0,0,0,0,0,0,0],"sum_hessian":[7.1434155E2,4.0191238E2,3.1242917E2,2.807733E2,1.2113909E2,4.59991E1,2.6643008E2,2.0485983E2,7.591345E1,7.445007E1,4.6689026E1,2.2151789E1,2.384731E1],"tree_param":{"num_deleted":"0","num_feature":"12","num_nodes":"13","size_leaf_vector":"1"}},{"base_weights":[2.3477422E-3,-4.290416E-1,1.563093E-1,-5.2487355E-1,-7.003166E-2,-1.766138E-1,3.844053E-1,-2.7314344E-2,-1.9398546E-2,-2.1650894E-2,1.3212167E-2,-2.927174E-2,1.821453E-2,2.8117849E-2,-2.7969806E-2],"categories":[],"categories_nodes":[],"categories_segments":[],"categories_sizes":[],"default_left":[0,0,0,0,0,0,0,0,0,0,0,0,0,0,0],"id":70,"left_children":[1,3,5,7,9,11,13,-1,-1,-1,-1,-1,-1,-1,-1],"loss_changes":[7.0372604E1,9.551445E0,5.936457E1,4.3246078E-1,7.3791018E0,7.0568886E1,7.81922E1,0E0,0E0,0E0,0E0,0E0,0E0,0E0,0E0],"parents":[2147483647,0,0,1,1,2,2,3,3,4,4,5,5,6,6],"right_children":[2,4,6,8,10,12,14,-1,-1,-1,-1,-1,-1,-1,-1],"split_conditions":[-3.14122E-1,5.54572E-1,-3.110503E-1,4.2699505E-2,4.3542004E-1,-5.774066E-1,1.2857913E0,-2.7314344E-2,-1.9398546E-2,-2.1650894E-2,1.3212167E-2,-2.927174E-2,1.821453E-2,2.8117849E-2,-2.7969806E-2],"split_indices":[8,5,9,5,6,7,7,0,0,0,0,0,0,0,0],"split_type":[0,0,0,0,0,0,0,0,0,0,0,0,0,0,0],"sum_hessian":[1.0575414E3,2.7768924E2,7.798522E2,2.1881743E2,5.887182E1,3.1715967E2,4.6269247E2,1.8663498E2,3.218245E1,2.8082207E1,3.0789612E1,1.805875E2,1.3657217E2,3.8963235E2,7.306014E1],"tree_param":{"num_deleted":"0","num_feature":"12","num_nodes":"15","size_leaf_vector":"1"}},{"base_weights":[-2.008691E-2,-5.286593E-1,8.4501445E-1,-2.702474E-2,-1.2587506E-1,6.132244E-1,8.86596E-1,6.1146584E-3,-1.836633E-2,-2.389137E-2,3.8413174E-2,1.1664982E-2,4.457591E-2],"categories":[],"categories_nodes":[],"categories_segments":[],"categories_sizes":[],"default_left":[0,0,0,0,0,0,0,0,0,0,0,0,0],"id":71,"left_children":[1,3,5,-1,7,9,11,-1,-1,-1,-1,-1,-1],"loss_changes":[3.263582E2,2.158844E0,2.1033173E0,0E0,9.220371E-1,7.9819946E0,5.336151E-1,0E0,0E0,0E0,0E0,0E0,0E0],"parents":[2147483647,0,0,1,1,2,2,4,4,5,5,6,6],"right_children":[2,4,6,-1,8,10,12,-1,-1,-1,-1,-1,-1],"split_conditions":[1.2395964E0,8.5463816E-1,5.617477E-1,-2.702474E-2,8.547103E-2,1.3596572E-1,1.2857913E0,6.1146584E-3,-1.836633E-2,-2.389137E-2,3.8413174E-2,1.1664982E-2,4.457591E-2],"split_indices":[7,7,5,0,3,6,7,0,0,0,0,0,0],"split_type":[0,0,0,0,0,0,0,0,0,0,0,0,0],"sum_hessian":[7.3976404E2,4.6612766E2,2.7363638E2,4.524897E2,1.3637964E1,4.4017113E1,2.2961926E2,6.9688077E0,6.669157E0,5.2175837E0,3.879953E1,2.0790167E0,2.2754024E2],"tree_param":{"num_deleted":"0","num_feature":"12","num_nodes":"13","size_leaf_vector":"1"}},{"base_weights":[6.075363E-4,2.490802E-1,-5.7549983E-1,4.963832E-1,-3.5481676E-1,-5.8620404E-2,-6.9800407E-1,2.9995073E-2,2.1784808E-2,2.6432881E-2,-3.540135E-2,2.2720484E-2,-3.4844026E-2,-1.263767E-2,-3.498019E-2],"categories":[],"categories_nodes":[],"categories_segments":[],"categories_sizes":[],"default_left":[0,0,0,0,0,0,0,0,0,0,0,0,0,0,0],"id":72,"left_children":[1,3,5,7,9,11,13,-1,-1,-1,-1,-1,-1,-1,-1],"loss_changes":[2.2247745E2,1.6234451E2,2.9613571E1,4.580948E0,9.900247E1,3.0056057E1,9.277344E-2,0E0,0E0,0E0,0E0,0E0,0E0,0E0,0E0],"parents":[2147483647,0,0,1,1,2,2,3,3,4,4,5,5,6,6],"right_children":[2,4,6,8,10,12,14,-1,-1,-1,-1,-1,-1,-1,-1],"split_conditions":[5.378283E-1,3.649602E-1,-3.14122E-1,-7.2974634E-1,-3.14122E-1,3.4734523E-1,-2.9564974E-1,2.9995073E-2,2.1784808E-2,2.6432881E-2,-3.540135E-2,2.2720484E-2,-3.4844026E-2,-1.263767E-2,-3.498019E-2],"split_indices":[5,6,8,8,8,6,8,0,0,0,0,0,0,0,0],"split_type":[0,0,0,0,0,0,0,0,0,0,0,0,0,0,0],"sum_hessian":[1.5521882E3,1.0848602E3,4.6732797E2,7.697972E2,3.1506308E2,8.982208E1,3.775059E2,2.812181E2,4.8857907E2,8.984349E1,2.2521959E2,4.995587E1,3.986621E1,1.9206163E0,3.7558527E2],"tree_param":{"num_deleted":"0","num_feature":"12","num_nodes":"15","size_leaf_vector":"1"}},{"base_weights":[1.7178543E-2,3.8773823E-1,-4.7639936E-1,5.5367893E-1,-3.829479E-3,-1.5194958E-1,-2.6635839E-2,1.4438395E-2,4.540435E-2,7.451568E-3,-1.2343738E-2,1.486458E-4,-1.8322593E-2],"categories":[],"categories_nodes":[],"categories_segments":[],"categories_sizes":[],"default_left":[0,0,0,0,0,0,0,0,0,0,0,0,0],"id":73,"left_children":[1,3,5,7,9,11,-1,-1,-1,-1,-1,-1,-1],"loss_changes":[1.2954994E2,2.6288353E1,5.4692764E0,2.6414864E1,4.5472536E0,1.5405495E0,0E0,0E0,0E0,0E0,0E0,0E0,0E0],"parents":[2147483647,0,0,1,1,2,2,3,3,4,4,5,5],"right_children":[2,4,6,8,10,12,-1,-1,-1,-1,-1,-1,-1],"split_conditions":[-5.6200826E-1,-2.852012E-1,-4.5421997E-1,3.649602E-1,1.4316046E-1,2.4719577E-2,-2.6635839E-2,1.4438395E-2,4.540435E-2,7.451568E-3,-1.2343738E-2,1.486458E-4,-1.8322593E-2],"split_indices":[7,9,7,6,5,1,0,0,0,0,0,0,0],"split_type":[0,0,0,0,0,0,0,0,0,0,0,0,0],"sum_hessian":[7.063E2,4.0354672E2,3.0275323E2,2.8314148E2,1.20405266E2,4.5325706E1,2.5742752E2,1.6306744E2,1.2007402E2,7.415381E1,4.625146E1,2.6890444E1,1.843526E1],"tree_param":{"num_deleted":"0","num_feature":"12","num_nodes":"13","size_leaf_vector":"1"}},{"base_weights":[2.2489312E-3,-2.1146506E-1,2.9882672E-1,-5.031025E-1,4.014681E-1,5.2434766E-1,-2.8239641E-2,-2.648056E-2,-1.4746432E-2,2.659298E-2,-2.5868773E-2,3.802973E-3,3.9802562E-2],"categories":[],"categories_nodes":[],"categories_segments":[],"categories_sizes":[],"default_left":[0,0,0,0,0,0,0,0,0,0,0,0,0],"id":74,"left_children":[1,3,5,7,9,11,-1,-1,-1,-1,-1,-1,-1],"loss_changes":[6.62579E1,1.0880622E2,8.556427E1,2.1180801E0,2.3810127E1,4.228588E1,0E0,0E0,0E0,0E0,0E0,0E0,0E0],"parents":[2147483647,0,0,1,1,2,2,3,3,4,4,5,5],"right_children":[2,4,6,8,10,12,-1,-1,-1,-1,-1,-1,-1],"split_conditions":[3.8257515E-1,5.378283E-1,1.2857913E0,2.3870498E-1,1.2395964E0,-2.9812562E-1,-2.8239641E-2,-2.648056E-2,-1.4746432E-2,2.659298E-2,-2.5868773E-2,3.802973E-3,3.9802562E-2],"split_indices":[6,5,7,7,7,9,0,0,0,0,0,0,0],"split_type":[0,0,0,0,0,0,0,0,0,0,0,0,0],"sum_hessian":[1.0433634E3,6.065618E2,4.3680157E2,4.1112512E2,1.9543669E2,3.466675E2,9.013405E1,3.6331656E2,4.780859E1,1.7151804E2,2.391866E1,1.3130504E2,2.1536247E2],"tree_param":{"num_deleted":"0","num_feature":"12","num_nodes":"13","size_leaf_vector":"1"}},{"base_weights":[-2.1313732E-2,-5.269272E-1,8.164548E-1,-2.6955927E-2,-1.2359369E-1,5.9526354E-1,8.5906583E-1,9.980149E-3,-1.533466E-2,6.303173E-4,3.8033515E-2,9.078595E-3,4.3259628E-2],"categories":[],"categories_nodes":[],"categories_segments":[],"categories_sizes":[],"default_left":[0,0,0,0,0,0,0,0,0,0,0,0,0],"id":75,"left_children":[1,3,5,-1,7,9,11,-1,-1,-1,-1,-1,-1],"loss_changes":[3.0733817E2,2.1581497E0,2.0625763E0,0E0,9.2355955E-1,4.555519E0,7.839966E-1,0E0,0E0,0E0,0E0,0E0,0E0],"parents":[2147483647,0,0,1,1,2,2,4,4,5,5,6,6],"right_children":[2,4,6,-1,8,10,12,-1,-1,-1,-1,-1,-1],"split_conditions":[1.2395964E0,8.5463816E-1,-2.9564974E-1,-2.6955927E-2,-3.271142E-1,3.8257515E-1,1.2857913E0,9.980149E-3,-1.533466E-2,6.303173E-4,3.8033515E-2,9.078595E-3,4.3259628E-2],"split_indices":[7,7,8,0,0,6,7,0,0,0,0,0,0],"split_type":[0,0,0,0,0,0,0,0,0,0,0,0,0],"sum_hessian":[7.235451E2,4.5145325E2,2.7209183E2,4.37881E2,1.3572223E1,4.6367958E1,2.2572388E2,4.875731E0,8.696492E0,1.049053E1,3.5877426E1,2.2975454E0,2.2342633E2],"tree_param":{"num_deleted":"0","num_feature":"12","num_nodes":"13","size_leaf_vector":"1"}},{"base_weights":[2.5500782E-4,2.4389389E-1,-5.650915E-1,4.8557895E-1,-3.4469497E-1,-5.3271364E-2,-6.876536E-1,2.9274821E-2,2.0976892E-2,2.623629E-2,-3.48068E-2,2.2405388E-2,-3.433473E-2,-1.2406859E-2,-3.446341E-2],"categories":[],"categories_nodes":[],"categories_segments":[],"categories_sizes":[],"default_left":[0,0,0,0,0,0,0,0,0,0,0,0,0,0,0],"id":76,"left_children":[1,3,5,7,9,11,13,-1,-1,-1,-1,-1,-1,-1,-1],"loss_changes":[2.0957782E2,1.5142578E2,2.870845E1,4.7310944E0,9.511726E1,2.8768091E1,9.126282E-2,0E0,0E0,0E0,0E0,0E0,0E0,0E0,0E0],"parents":[2147483647,0,0,1,1,2,2,3,3,4,4,5,5,6,6],"right_children":[2,4,6,8,10,12,14,-1,-1,-1,-1,-1,-1,-1,-1],"split_conditions":[5.378283E-1,3.649602E-1,-3.14122E-1,-6.0044104E-1,-3.14122E-1,3.4734523E-1,-2.9564974E-1,2.9274821E-2,2.0976892E-2,2.623629E-2,-3.48068E-2,2.2405388E-2,-3.433473E-2,-1.2406859E-2,-3.446341E-2],"split_indices":[5,6,8,8,8,6,8,0,0,0,0,0,0,0,0],"split_type":[0,0,0,0,0,0,0,0,0,0,0,0,0,0,0],"sum_hessian":[1.5195415E3,1.0623047E3,4.5723688E2,7.5320166E2,3.0910297E2,8.8614944E1,3.6862195E2,2.9659695E2,4.5660468E2,8.883739E1,2.202656E2,4.962633E1,3.898861E1,1.9153428E0,3.667066E2],"tree_param":{"num_deleted":"0","num_feature":"12","num_nodes":"15","size_leaf_vector":"1"}},{"base_weights":[1.9405954E-2,3.7769142E-1,-4.733922E-1,5.3675926E-1,-7.4601144E-4,-1.4653164E-1,-2.6570017E-2,-8.584252E-3,3.30154E-2,-2.2006845E-2,4.1737617E-3,2.2956773E-3,-1.6083164E-2],"categories":[],"categories_nodes":[],"categories_segments":[],"categories_sizes":[],"default_left":[0,0,0,0,0,0,0,0,0,0,0,0,0],"id":77,"left_children":[1,3,5,7,9,11,-1,-1,-1,-1,-1,-1,-1],"loss_changes":[1.2345659E2,2.4370491E1,5.5036316E0,2.5061485E1,4.507259E0,1.5566676E0,0E0,0E0,0E0,0E0,0E0,0E0,0E0],"parents":[2147483647,0,0,1,1,2,2,3,3,4,4,5,5],"right_children":[2,4,6,8,10,12,-1,-1,-1,-1,-1,-1,-1],"split_conditions":[-5.6200826E-1,-2.852012E-1,-4.5421997E-1,-2.9564974E-1,-9.4414514E-1,-2.3345053E-2,-2.6570017E-2,-8.584252E-3,3.30154E-2,-2.2006845E-2,4.1737617E-3,2.2956773E-3,-1.6083164E-2],"split_indices":[7,9,7,8,0,0,0,0,0,0,0,0,0],"split_type":[0,0,0,0,0,0,0,0,0,0,0,0,0],"sum_hessian":[6.972109E2,4.0383734E2,2.9337357E2,2.8403226E2,1.19805084E2,4.4749275E1,2.4862428E2,4.2120174E1,2.419121E2,1.8590511E1,1.0121457E2,2.167229E1,2.3076984E1],"tree_param":{"num_deleted":"0","num_feature":"12","num_nodes":"13","size_leaf_vector":"1"}},{"base_weights":[2.2231792E-3,-4.203758E-1,1.4714509E-1,-5.191795E-1,-6.946557E-2,2.4584016E-1,-2.7924953E-2,-2.710607E-2,-1.874187E-2,-2.1303704E-2,1.2597646E-2,-6.7289094E-3,2.9135613E-2],"categories":[],"categories_nodes":[],"categories_segments":[],"categories_sizes":[],"default_left":[0,0,0,0,0,0,0,0,0,0,0,0,0],"id":78,"left_children":[1,3,5,7,9,11,-1,-1,-1,-1,-1,-1,-1],"loss_changes":[6.307166E1,9.081856E0,5.354367E1,4.758072E-1,6.862233E0,8.63828E1,0E0,0E0,0E0,0E0,0E0,0E0,0E0],"parents":[2147483647,0,0,1,1,2,2,3,3,4,4,5,5],"right_children":[2,4,6,8,10,12,-1,-1,-1,-1,-1,-1,-1],"split_conditions":[-3.14122E-1,5.54572E-1,1.2857913E0,4.2699505E-2,4.3542004E-1,-5.774066E-1,-2.7924953E-2,-2.710607E-2,-1.874187E-2,-2.1303704E-2,1.2597646E-2,-6.7289094E-3,2.9135613E-2],"split_indices":[8,5,7,5,6,7,0,0,0,0,0,0,0],"split_type":[0,0,0,0,0,0,0,0,0,0,0,0,0],"sum_hessian":[1.0278347E3,2.6198212E2,7.658526E2,2.0404956E2,5.7932556E1,6.7245166E2,9.340097E1,1.7368764E2,3.0361921E1,2.7308558E1,3.0623999E1,3.1609576E2,3.5635587E2],"tree_param":{"num_deleted":"0","num_feature":"12","num_nodes":"13","size_leaf_vector":"1"}},{"base_weights":[-2.2927465E-2,-5.251162E-1,7.887041E-1,-2.6884953E-2,-1.19550645E-1,5.637746E-1,8.29607E-1,6.2497933E-3,-1.8088216E-2,-2.378768E-2,3.5516303E-2,1.1019739E-2,4.1717876E-2],"categories":[],"categories_nodes":[],"categories_segments":[],"categories_sizes":[],"default_left":[0,0,0,0,0,0,0,0,0,0,0,0,0],"id":79,"left_children":[1,3,5,-1,7,9,11,-1,-1,-1,-1,-1,-1],"loss_changes":[2.8884457E2,2.1696777E0,2.0245209E0,0E0,9.016529E-1,7.1631765E0,4.7328186E-1,0E0,0E0,0E0,0E0,0E0,0E0],"parents":[2147483647,0,0,1,1,2,2,4,4,5,5,6,6],"right_children":[2,4,6,-1,8,10,12,-1,-1,-1,-1,-1,-1],"split_conditions":[1.2395964E0,8.5463816E-1,5.617477E-1,-2.6884953E-2,8.547103E-2,1.3596572E-1,1.2857913E0,6.2497933E-3,-1.8088216E-2,-2.378768E-2,3.5516303E-2,1.1019739E-2,4.1717876E-2],"split_indices":[7,7,5,0,3,6,7,0,0,0,0,0,0],"split_type":[0,0,0,0,0,0,0,0,0,0,0,0,0],"sum_hessian":[7.066445E2,4.3675797E2,2.698865E2,4.232991E2,1.3458848E1,4.380136E1,2.2608514E2,6.937985E0,6.520863E0,5.134524E0,3.866684E1,2.116019E0,2.2396912E2],"tree_param":{"num_deleted":"0","num_feature":"12","num_nodes":"13","size_leaf_vector":"1"}},{"base_weights":[4.0307388E-4,2.3965749E-1,-5.5675477E-1,4.7481453E-1,-3.5013926E-1,-5.9066147E-2,-6.799331E-1,2.8907297E-2,2.043449E-2,2.5580242E-2,-3.4836374E-2,2.1429192E-2,-3.3975404E-2,-1.845814E-2,-3.411235E-2],"categories":[],"categories_nodes":[],"categories_segments":[],"categories_sizes":[],"default_left":[0,0,0,0,0,0,0,0,0,0,0,0,0,0,0],"id":80,"left_children":[1,3,5,7,9,11,13,-1,-1,-1,-1,-1,-1,-1,-1],"loss_changes":[1.9875165E2,1.4483434E2,2.7418976E1,4.8620605E0,8.933241E1,2.7509422E1,6.2561035E-3,0E0,0E0,0E0,0E0,0E0,0E0,0E0,0E0],"parents":[2147483647,0,0,1,1,2,2,3,3,4,4,5,5,6,6],"right_children":[2,4,6,8,10,12,14,-1,-1,-1,-1,-1,-1,-1,-1],"split_conditions":[5.378283E-1,3.8257515E-1,-2.9564974E-1,-6.0044104E-1,-3.14122E-1,3.4734523E-1,5.54572E-1,2.8907297E-2,2.043449E-2,2.5580242E-2,-3.4836374E-2,2.1429192E-2,-3.3975404E-2,-1.845814E-2,-3.411235E-2],"split_indices":[5,6,8,8,8,6,5,0,0,0,0,0,0,0,0],"split_type":[0,0,0,0,0,0,0,0,0,0,0,0,0,0,0],"sum_hessian":[1.4889816E3,1.0420674E3,4.4691418E2,7.4516046E2,2.9690692E2,8.896011E1,3.5795407E2,2.8775317E2,4.5740726E2,8.5025795E1,2.1188113E2,4.998362E1,3.8976498E1,3.8320208E0,3.5412204E2],"tree_param":{"num_deleted":"0","num_feature":"12","num_nodes":"15","size_leaf_vector":"1"}},{"base_weights":[2.0612909E-2,3.6496168E-1,-4.7024626E-1,5.18061E-1,-1.4151294E-3,-1.395774E-1,-2.650549E-2,1.5265089E-2,4.554191E-2,7.6625827E-3,-1.2331429E-2,7.978926E-4,-1.7921923E-2],"categories":[],"categories_nodes":[],"categories_segments":[],"categories_sizes":[],"default_left":[0,0,0,0,0,0,0,0,0,0,0,0,0],"id":81,"left_children":[1,3,5,7,9,11,-1,-1,-1,-1,-1,-1,-1],"loss_changes":[1.1683432E2,2.2785385E1,5.567608E0,2.366291E1,4.6159782E0,1.5390587E0,0E0,0E0,0E0,0E0,0E0,0E0,0E0],"parents":[2147483647,0,0,1,1,2,2,3,3,4,4,5,5],"right_children":[2,4,6,8,10,12,-1,-1,-1,-1,-1,-1,-1],"split_conditions":[-5.6200826E-1,-2.852012E-1,-4.5421997E-1,2.651488E-1,1.4316046E-1,2.4719577E-2,-2.650549E-2,1.5265089E-2,4.554191E-2,7.6625827E-3,-1.2331429E-2,7.978926E-4,-1.7921923E-2],"split_indices":[7,9,7,5,5,1,0,0,0,0,0,0,0],"split_type":[0,0,0,0,0,0,0,0,0,0,0,0,0],"sum_hessian":[6.892026E2,4.0520123E2,2.840013E2,2.854889E2,1.1971235E2,4.404441E1,2.3995691E2,1.8633333E2,9.915557E1,7.363965E1,4.60727E1,2.6289013E1,1.77554E1],"tree_param":{"num_deleted":"0","num_feature":"12","num_nodes":"13","size_leaf_vector":"1"}},{"base_weights":[2.1556558E-3,-2.0566836E-1,2.8401643E-1,-4.9589607E-1,3.7645072E-1,4.9224302E-1,-2.7967244E-2,-2.6186613E-2,-1.40088545E-2,2.4749402E-2,-2.5530413E-2,3.2803386E-3,3.743795E-2],"categories":[],"categories_nodes":[],"categories_segments":[],"categories_sizes":[],"default_left":[0,0,0,0,0,0,0,0,0,0,0,0,0],"id":82,"left_children":[1,3,5,7,9,11,-1,-1,-1,-1,-1,-1,-1],"loss_changes":[5.9460957E1,9.8899765E1,7.592851E1,2.1970901E0,2.0752539E1,3.7820045E1,0E0,0E0,0E0,0E0,0E0,0E0,0E0],"parents":[2147483647,0,0,1,1,2,2,3,3,4,4,5,5],"right_children":[2,4,6,8,10,12,-1,-1,-1,-1,-1,-1,-1],"split_conditions":[3.8257515E-1,5.378283E-1,1.2857913E0,2.3870498E-1,1.2395964E0,-2.9812562E-1,-2.7967244E-2,-2.6186613E-2,-1.40088545E-2,2.4749402E-2,-2.5530413E-2,3.2803386E-3,3.743795E-2],"split_indices":[6,5,7,7,7,9,0,0,0,0,0,0,0],"split_type":[0,0,0,0,0,0,0,0,0,0,0,0,0],"sum_hessian":[1.0130857E3,5.83284E2,4.2980164E2,3.8932565E2,1.9395837E2,3.4502985E2,8.4771805E1,3.435645E2,4.5761124E1,1.7148491E2,2.2473469E1,1.3002635E2,2.1500351E2],"tree_param":{"num_deleted":"0","num_feature":"12","num_nodes":"13","size_leaf_vector":"1"}},{"base_weights":[-2.462365E-2,-5.300003E-1,7.542268E-1,-2.6821459E-2,-2.1845366E-1,5.0859106E-1,8.0054563E-1,-2.4366222E-2,1.4231983E-2,-2.3693798E-2,3.2236423E-2,3.2179922E-2,4.1541934E-2],"categories":[],"categories_nodes":[],"categories_segments":[],"categories_sizes":[],"default_left":[0,0,0,0,0,0,0,0,0,0,0,0,0],"id":83,"left_children":[1,3,5,-1,7,9,11,-1,-1,-1,-1,-1,-1],"loss_changes":[2.7236615E2,7.232971E-1,2.691162E0,0E0,1.5145332E0,6.4507723E0,5.463104E-1,0E0,0E0,0E0,0E0,0E0,0E0],"parents":[2147483647,0,0,1,1,2,2,4,4,5,5,6,6],"right_children":[2,4,6,-1,8,10,12,-1,-1,-1,-1,-1,-1],"split_conditions":[1.1626046E0,8.5463816E-1,5.617477E-1,-2.6821459E-2,4.0580168E-1,1.3596572E-1,-2.9564974E-1,-2.4366222E-2,1.4231983E-2,-2.3693798E-2,3.2236423E-2,3.2179922E-2,4.1541934E-2],"split_indices":[7,7,5,0,2,6,8,0,0,0,0,0,0],"split_type":[0,0,0,0,0,0,0,0,0,0,0,0,0],"sum_hessian":[6.8994904E2,4.1862997E2,2.7131906E2,4.0945883E2,9.171145E0,4.4945644E1,2.2637343E2,5.997314E0,3.1738317E0,5.1680856E0,3.9777557E1,4.02234E1,1.8615002E2],"tree_param":{"num_deleted":"0","num_feature":"12","num_nodes":"13","size_leaf_vector":"1"}},{"base_weights":[1.03069004E-4,2.3412813E-1,-5.462724E-1,4.678333E-1,-3.346097E-1,-4.504835E-2,-6.687465E-1,2.8935034E-2,2.0325122E-2,2.5490044E-2,-3.3885833E-2,2.1717397E-2,-3.3425942E-2,-1.1801475E-2,-3.352057E-2],"categories":[],"categories_nodes":[],"categories_segments":[],"categories_sizes":[],"default_left":[0,0,0,0,0,0,0,0,0,0,0,0,0,0,0],"id":84,"left_children":[1,3,5,7,9,11,13,-1,-1,-1,-1,-1,-1,-1,-1],"loss_changes":[1.8654356E2,1.3591931E2,